118 100
u 0.15132 0.047118 -0.038429 -0.049629 0.13067 0.1139 -0.28636 -0.012546 0.10611 0.084337 -0.14248 0.1399 -0.025201 0.151 -0.13608 0.044568 0.16087 -0.043206 -0.032138 -0.15203 0.0084903 -0.015526 0.082947 -0.041627 -0.15351 -0.12158 0.12916 -0.18452 -0.11469 0.21365 0.10346 -0.016828 -0.067867 -0.14041 -0.25481 -0.21646 -0.031455 -0.085626 -0.051249 0.073124 -0.18787 0.21564 0.06911 0.22636 0.17202 -0.13551 0.20657 0.073565 0.0035416 0.16018 -0.25904 0.070889 -0.20401 0.14224 -0.029359 -0.077869 -0.12918 0.0015075 0.1282 0.14 0.057696 0.050504 0.23153 0.24549 -0.078391 -0.021577 0.01788 0.089054 -0.089946 0.041221 -0.19281 0.18707 0.12405 0.046829 -0.13198 0.071784 0.054987 0.056549 0.19928 -0.010083 0.083888 0.043635 0.084718 -0.028032 0.064758 -0.041476 0.06449 0.061907 -0.10911 -0.13886 0.19348 0.085043 0.44623 -0.094063 -0.01994 -0.26523 -0.17376 0.019235 -0.10796 -0.18781 
" 0.12804 0.034824 -0.0099095 -0.044495 0.09475 0.11284 -0.24306 -0.007909 0.071349 0.075098 -0.10616 0.11884 -0.02588 0.11479 -0.093778 0.021403 0.13152 -0.057406 -0.027167 -0.12414 0.004378 -0.017026 0.060853 -0.016452 -0.14902 -0.097666 0.092507 -0.14231 -0.1 0.17273 0.097027 -0.0023623 -0.041568 -0.10748 -0.19231 -0.17204 -0.02347 -0.048359 -0.040535 0.048818 -0.17423 0.17643 0.046774 0.18063 0.16208 -0.1031 0.17187 0.055887 0.021943 0.13924 -0.19415 0.04309 -0.14663 0.12474 -0.027657 -0.055618 -0.12164 -2.6422e-06 0.11287 0.10079 0.058637 0.03942 0.19841 0.20902 -0.044903 -0.02205 0.032621 0.062197 -0.10144 0.014813 -0.13692 0.16529 0.12189 0.037988 -0.11203 0.044478 0.039523 0.04398 0.17251 -0.019175 0.089264 0.034913 0.054138 -0.0045335 0.070878 -0.011171 0.045991 0.052586 -0.0944 -0.097918 0.146 0.0694 0.34726 -0.056464 -0.0085423 -0.20487 -0.15294 0.0019889 -0.090447 -0.15934 
uca 0.11628 0.015593 -0.012299 -0.036551 0.074147 0.082131 -0.21304 -0.017083 0.074146 0.082825 -0.097494 0.11683 -0.016402 0.09565 -0.072098 0.024174 0.1136 -0.062726 -0.019318 -0.10877 0.016301 -0.03149 0.045161 -0.020316 -0.12476 -0.078748 0.097634 -0.13344 -0.091693 0.16759 0.094952 0.0087565 -0.043046 -0.084617 -0.16869 -0.15621 -0.014167 -0.032919 -0.029208 0.045506 -0.15048 0.15036 0.053502 0.15591 0.13828 -0.088287 0.14639 0.056072 0.033508 0.1319 -0.16838 0.040076 -0.12484 0.10439 -0.023622 -0.043158 -0.098416 -0.011773 0.082249 0.083503 0.060497 0.040661 0.18196 0.18887 -0.046906 -0.014302 0.041251 0.057034 -0.07956 0.0068245 -0.1127 0.14619 0.10912 0.036175 -0.098625 0.039604 0.046798 0.040828 0.15692 -0.029981 0.088026 0.036824 0.034807 -0.018203 0.059771 -0.016045 0.040255 0.064376 -0.068946 -0.094403 0.12007 0.058483 0.30408 -0.046588 -0.015068 -0.18811 -0.13604 0.0066052 -0.063442 -0.12521 
source 0.088022 0.027125 -0.013823 -0.028841 0.056463 0.087069 -0.17705 -0.0045455 0.058323 0.073696 -0.074216 0.11568 -0.015154 0.090078 -0.046738 0.0053158 0.088114 -0.067074 0.0025402 -0.093445 0.015511 -0.016127 0.043133 -0.017674 -0.11701 -0.058639 0.087526 -0.10788 -0.081195 0.14151 0.09085 0.0086231 -0.031313 -0.06572 -0.13224 -0.11659 0.0029692 -0.033937 -0.033481 0.028175 -0.11891 0.1223 0.037811 0.12476 0.11639 -0.079579 0.1217 0.035554 0.033185 0.11959 -0.14922 0.027329 -0.10493 0.09305 -0.0097755 -0.04989 -0.086635 -0.0018036 0.07892 0.071718 0.034681 0.027882 0.15475 0.14943 -0.036007 -0.015122 0.051838 0.044459 -0.078682 0.0085613 -0.089228 0.12695 0.093589 0.045459 -0.072578 0.034957 0.038327 0.051133 0.13377 -0.03079 0.072154 0.042135 0.040615 -0.0053601 0.06515 -0.0034307 0.030081 0.056702 -0.072218 -0.084973 0.11001 0.047735 0.24804 -0.029512 -0.024697 -0.1641 -0.11606 0.0038658 -0.061979 -0.11387 
thu 0.10449 0.029786 -0.011717 -0.029263 0.082105 0.10133 -0.20176 -0.015851 0.068443 0.074514 -0.090688 0.11208 -0.017862 0.10604 -0.063272 0.02058 0.116 -0.063484 -0.016435 -0.10134 0.016739 -0.028387 0.046667 -0.030644 -0.12339 -0.073977 0.10151 -0.12202 -0.076655 0.17115 0.099856 -0.0087733 -0.045604 -0.090938 -0.16046 -0.14308 -0.017205 -0.032036 -0.030614 0.040064 -0.14978 0.14234 0.056462 0.16805 0.14137 -0.10325 0.13984 0.059042 0.024191 0.12371 -0.17465 0.043518 -0.12587 0.11306 -0.0032563 -0.043801 -0.10692 0.0029164 0.081105 0.098393 0.055859 0.032462 0.16869 0.17943 -0.033178 -0.012407 0.042331 0.049259 -0.092125 0.02129 -0.12298 0.14272 0.099138 0.052131 -0.096886 0.035315 0.031431 0.031885 0.15398 -0.02656 0.071673 0.040546 0.04215 -0.0054797 0.060783 -0.010954 0.04338 0.061132 -0.081369 -0.085019 0.13367 0.06134 0.31037 -0.047683 -0.017602 -0.1783 -0.13741 -0.0069889 -0.077716 -0.14343 
dec 0.10516 0.024239 -0.0018255 -0.032219 0.065637 0.085273 -0.19399 -0.006927 0.050564 0.081776 -0.077456 0.11932 -0.014124 0.091884 -0.066042 0.01568 0.096872 -0.071251 0.00011305 -0.11224 -0.0012889 -0.022558 0.053762 -0.023794 -0.11541 -0.063359 0.087251 -0.12307 -0.085612 0.15308 0.082735 0.0081268 -0.039807 -0.083166 -0.14046 -0.13097 -0.0076799 -0.03839 -0.042613 0.036814 -0.13779 0.13433 0.041621 0.14628 0.13407 -0.085041 0.12243 0.029252 0.024839 0.1287 -0.15929 0.028876 -0.12819 0.11341 -0.0038435 -0.045795 -0.091426 -0.0045586 0.083862 0.076476 0.039328 0.025077 0.17361 0.17025 -0.028206 -0.014282 0.043953 0.049428 -0.087023 0.021534 -0.11201 0.14265 0.1121 0.035264 -0.083483 0.028533 0.041087 0.03848 0.1328 -0.028654 0.082901 0.046655 0.038855 -0.0028936 0.067041 -0.0081065 0.02525 0.053991 -0.076479 -0.073778 0.11905 0.057817 0.26562 -0.033027 -0.021269 -0.17637 -0.13607 0.00052967 -0.071285 -0.13373 
</s> 0.11544 0.028811 -0.0076533 -0.03959 0.07451 0.093852 -0.20256 -0.0092092 0.065795 0.065409 -0.093064 0.11277 -0.029406 0.088095 -0.084478 0.033939 0.11095 -0.054555 -0.017872 -0.10035 0.013912 -0.0127 0.051729 -0.026391 -0.11794 -0.073834 0.083778 -0.12402 -0.083269 0.16504 0.079985 -0.012185 -0.044891 -0.086578 -0.15975 -0.14227 -0.011037 -0.043616 -0.035213 0.048463 -0.14929 0.14861 0.050796 0.14899 0.13884 -0.096446 0.15239 0.042848 0.018453 0.10997 -0.16194 0.043302 -0.13589 0.10312 -0.010883 -0.05359 -0.097791 0.004044 0.099455 0.08892 0.050487 0.037453 0.15547 0.1626 -0.049826 -0.010768 0.02089 0.061945 -0.080846 0.028347 -0.12823 0.1412 0.095582 0.035802 -0.093103 0.044976 0.035833 0.026775 0.13618 -0.022067 0.078971 0.040903 0.048816 -0.010181 0.062513 -0.017756 0.050604 0.058149 -0.069731 -0.088958 0.12343 0.052061 0.29614 -0.05324 -0.022058 -0.18675 -0.13353 -0.0039043 -0.063916 -0.14088 
"message": 0.10962 0.027563 -0.026739 -0.037198 0.095028 0.09218 -0.22023 -0.0056145 0.062051 0.048383 -0.098578 0.088536 -0.026224 0.10557 -0.082676 0.034367 0.11228 -0.045899 -0.020094 -0.098894 0.0087885 -0.026293 0.042042 -0.017445 -0.12562 -0.08872 0.081914 -0.1178 -0.090056 0.14969 0.082735 0.0034914 -0.030015 -0.084099 -0.17792 -0.14371 -0.014473 -0.062048 -0.027171 0.05983 -0.14391 0.14625 0.043514 0.16559 0.1398 -0.088988 0.15972 0.066611 0.021094 0.12053 -0.17923 0.03505 -0.1292 0.11093 -0.016409 -0.051607 -0.097698 0.0048676 0.096664 0.089811 0.053432 0.022457 0.17266 0.1586 -0.055279 -0.024796 0.023174 0.053064 -0.091058 0.014823 -0.13032 0.14173 0.089976 0.037533 -0.096424 0.05915 0.025874 0.032211 0.14252 -0.017854 0.070727 0.020661 0.055488 0.01078 0.05565 -0.0030454 0.04674 0.057581 -0.07996 -0.096739 0.1319 0.050803 0.30043 -0.065852 -0.019902 -0.1816 -0.1375 -0.013172 -0.069112 -0.13736 
ue 0.27059 0.078098 -0.051592 -0.071747 0.23133 0.17669 -0.47871 -0.021501 0.1231 0.061293 -0.26453 0.1443 -0.086973 0.21329 -0.24422 0.10736 0.25648 -0.028538 -0.071766 -0.18773 -0.0013849 -0.029548 0.1033 -0.051121 -0.22772 -0.19674 0.18542 -0.26959 -0.16421 0.26689 0.14522 -0.01186 -0.076962 -0.19514 -0.40244 -0.32562 -0.080099 -0.14098 -0.067096 0.1927 -0.33651 0.28588 0.095685 0.34711 0.27473 -0.22529 0.35443 0.15589 -0.02147 0.20844 -0.37843 0.076472 -0.30368 0.18328 -0.067167 -0.082885 -0.19837 0.0064774 0.20932 0.23328 0.10916 0.065018 0.30132 0.32684 -0.13669 -0.044773 -0.032369 0.11136 -0.1522 0.049406 -0.28021 0.24902 0.18446 0.056127 -0.23203 0.15381 0.045522 0.019345 0.30767 0.011522 0.11269 0.0032449 0.1167 0.014369 0.08924 -0.037846 0.12888 0.099652 -0.18534 -0.20002 0.25173 0.08867 0.68473 -0.17216 -0.0090378 -0.34718 -0.27531 0.0074257 -0.158 -0.28613 
n 0.15175 0.042232 -0.020988 -0.039009 0.11642 0.13607 -0.29972 -0.0086474 0.093279 0.086564 -0.14884 0.14893 -0.020942 0.13862 -0.13207 0.03293 0.16241 -0.081256 -0.026904 -0.15818 0.0037281 -0.030544 0.076316 -0.036256 -0.18231 -0.11678 0.13798 -0.18908 -0.11921 0.22023 0.12817 -0.015919 -0.055117 -0.14021 -0.25244 -0.22537 -0.032071 -0.060812 -0.05119 0.073306 -0.21157 0.22292 0.065221 0.23533 0.19291 -0.13611 0.22134 0.074524 0.022284 0.16897 -0.25373 0.051433 -0.19584 0.14883 -0.020753 -0.067466 -0.13788 0.010881 0.14859 0.14179 0.069805 0.048658 0.24143 0.26052 -0.068696 -0.032146 0.036508 0.09693 -0.11975 0.035948 -0.182 0.19664 0.14744 0.061784 -0.14191 0.075436 0.050597 0.049804 0.21928 -0.027743 0.11666 0.038016 0.075999 -0.01774 0.072063 -0.019527 0.054721 0.079703 -0.11795 -0.13622 0.1923 0.093749 0.45946 -0.086228 -0.032803 -0.26914 -0.20075 0.0055 -0.11516 -0.20758 
rt 0.12041 0.029249 -0.019993 -0.02363 0.088075 0.095497 -0.21714 -0.0081987 0.065143 0.067377 -0.088241 0.11717 -0.018288 0.10421 -0.081103 0.021687 0.11682 -0.064948 -0.0058668 -0.10565 0.0095807 -0.025299 0.062293 -0.032156 -0.13192 -0.088541 0.10159 -0.13199 -0.090406 0.16622 0.10222 -0.008229 -0.039734 -0.095092 -0.16179 -0.16091 -0.011452 -0.047754 -0.038511 0.036655 -0.15553 0.14825 0.039575 0.15929 0.14662 -0.085385 0.14464 0.056294 0.01747 0.1273 -0.18416 0.034852 -0.12849 0.11079 -0.012493 -0.060052 -0.10117 0.0075203 0.10088 0.094535 0.059643 0.037575 0.17853 0.1892 -0.048634 -0.008894 0.044118 0.060969 -0.091847 0.02712 -0.11699 0.15471 0.11379 0.035612 -0.10046 0.041335 0.038672 0.047294 0.15558 -0.026969 0.076854 0.042185 0.041157 -0.0091948 0.071333 -0.016133 0.039851 0.057234 -0.086905 -0.096553 0.12538 0.06417 0.31765 -0.058682 -0.027439 -0.19926 -0.13422 -0.0025019 -0.079939 -0.13633 
stock 0.1106 0.027993 -0.014942 -0.021953 0.061199 0.096263 -0.18855 -0.0048324 0.054711 0.073417 -0.088884 0.12486 -0.0013304 0.10009 -0.055036 0.012535 0.10952 -0.074577 -0.0057548 -0.1119 0.012835 -0.021633 0.051996 -0.015726 -0.13392 -0.068055 0.088895 -0.11837 -0.092741 0.17376 0.10005 0.011457 -0.039511 -0.096479 -0.15154 -0.14445 -0.0013758 -0.039448 -0.037317 0.031094 -0.13574 0.14895 0.056132 0.16198 0.13932 -0.087518 0.1308 0.045153 0.026818 0.13828 -0.17205 0.040893 -0.12252 0.10732 -0.00026815 -0.048677 -0.097806 -0.0084189 0.093977 0.073553 0.055517 0.032383 0.18457 0.19239 -0.026939 -0.022273 0.054531 0.062478 -0.094771 0.017281 -0.12068 0.14662 0.11696 0.052214 -0.093316 0.035236 0.03853 0.046879 0.15569 -0.03708 0.088984 0.049185 0.032776 -0.0074796 0.069981 -0.00045879 0.045806 0.058813 -0.071783 -0.098414 0.12451 0.072905 0.28968 -0.028719 -0.015536 -0.18962 -0.14393 -0.0016859 -0.078598 -0.14113 
co 0.092316 0.014296 -0.016455 -0.030483 0.069521 0.078867 -0.18237 -0.0075517 0.057837 0.057687 -0.076788 0.10934 -0.0015394 0.093251 -0.056517 0.015306 0.094217 -0.056383 -0.0019762 -0.098865 0.014816 -0.021395 0.048008 -0.015994 -0.10917 -0.073208 0.083348 -0.096336 -0.064723 0.1357 0.079971 0.0030195 -0.025132 -0.072584 -0.14402 -0.12112 0.0028224 -0.041166 -0.038229 0.029204 -0.11587 0.11779 0.049342 0.12414 0.12327 -0.084228 0.11707 0.047311 0.02427 0.10794 -0.13693 0.023133 -0.1107 0.089293 -0.013347 -0.04938 -0.092735 -0.0045835 0.069647 0.069547 0.04618 0.032309 0.15242 0.15282 -0.040714 -0.0089271 0.031676 0.050768 -0.068781 0.0082979 -0.097116 0.12909 0.095965 0.033694 -0.079361 0.022879 0.036632 0.045869 0.12645 -0.014396 0.069638 0.036105 0.037383 -0.011995 0.058916 -0.0052901 0.035087 0.045287 -0.071163 -0.076077 0.11047 0.042126 0.2499 -0.046526 -0.020196 -0.16409 -0.10936 -0.0092972 -0.0617 -0.1226 
https 0.082947 0.014123 -0.0033637 -0.015189 0.048601 0.073112 -0.14664 -0.010356 0.054283 0.053611 -0.063775 0.087581 -0.020108 0.077484 -0.055645 0.022438 0.087741 -0.036063 -0.019763 -0.084763 0.002756 -0.022564 0.031902 -0.013724 -0.085647 -0.0522 0.073209 -0.084515 -0.055901 0.12014 0.072382 0.00076353 -0.031681 -0.069993 -0.10958 -0.1007 -0.016551 -0.040242 -0.02168 0.026148 -0.097085 0.107 0.032689 0.11927 0.10482 -0.072347 0.092587 0.036304 0.021916 0.08525 -0.12389 0.036407 -0.10377 0.082052 -0.017812 -0.03882 -0.078388 0.0032694 0.055821 0.068061 0.028035 0.016382 0.12699 0.13872 -0.031135 -0.018151 0.02513 0.043719 -0.056468 0.010443 -0.097653 0.10894 0.080076 0.03052 -0.073331 0.020939 0.03549 0.018517 0.099885 -0.017984 0.063578 0.032121 0.022837 0.0019714 0.041698 0.00049867 0.036962 0.03184 -0.05831 -0.060774 0.084408 0.048943 0.22235 -0.039888 -0.014023 -0.13211 -0.1008 -0.0022329 -0.043188 -0.10081 
uf 0.12972 0.028678 -0.024424 -0.027292 0.10518 0.088255 -0.23827 -0.012485 0.079775 0.063597 -0.12028 0.11672 -0.038473 0.10887 -0.11054 0.038302 0.12988 -0.034378 -0.03541 -0.10352 -0.00080565 -0.012873 0.057722 -0.029343 -0.1265 -0.090701 0.10613 -0.14905 -0.090947 0.16903 0.086172 -0.00064658 -0.054543 -0.11103 -0.1892 -0.17733 -0.027683 -0.059085 -0.043772 0.059971 -0.17185 0.16887 0.045891 0.17564 0.141 -0.10681 0.17852 0.058227 0.01788 0.12405 -0.20158 0.050547 -0.15546 0.10471 -0.028829 -0.062372 -0.10385 -0.00041346 0.10914 0.11216 0.049551 0.035421 0.1665 0.1937 -0.049716 -0.026488 0.01619 0.068144 -0.085435 0.027386 -0.152 0.14941 0.10957 0.028251 -0.12092 0.069555 0.045247 0.038755 0.15578 -0.0044101 0.079663 0.019327 0.055422 0.0074841 0.052222 -0.025984 0.058741 0.056125 -0.095276 -0.11489 0.15076 0.064531 0.34043 -0.066187 -0.020862 -0.20751 -0.14684 0.003062 -0.083263 -0.14866 
ud 0.12412 0.037543 -0.023834 -0.043291 0.092146 0.10088 -0.23432 -0.015707 0.066506 0.071503 -0.10049 0.10393 -0.021271 0.11199 -0.085315 0.043025 0.12153 -0.048832 -0.028444 -0.11863 0.018054 -0.031205 0.046049 -0.01455 -0.12837 -0.084197 0.092458 -0.1255 -0.09979 0.15962 0.09598 0.0055897 -0.033393 -0.10286 -0.1899 -0.1702 -0.02861 -0.059473 -0.036549 0.066955 -0.15961 0.16023 0.060675 0.17514 0.13564 -0.11148 0.16176 0.067892 0.018349 0.13364 -0.18846 0.051714 -0.14326 0.10567 -0.01454 -0.047028 -0.10792 -0.0080576 0.10585 0.097567 0.05962 0.026482 0.16915 0.18885 -0.045518 -0.024937 0.039359 0.064417 -0.089171 0.027074 -0.12706 0.15627 0.096291 0.034466 -0.095992 0.049948 0.033874 0.026514 0.15823 -0.014819 0.075553 0.041004 0.054578 -0.0021881 0.055882 -0.022807 0.053746 0.045026 -0.083662 -0.11025 0.1263 0.064944 0.33321 -0.06345 -0.016174 -0.18862 -0.1471 -0.00096173 -0.072988 -0.14245 
ua 0.12785 0.037783 -0.026654 -0.032511 0.096519 0.10562 -0.23941 -0.012849 0.079954 0.066252 -0.10405 0.11217 -0.03312 0.11112 -0.094846 0.032186 0.12765 -0.042343 -0.034251 -0.11268 0.0058514 -0.014315 0.063093 -0.014331 -0.12691 -0.088243 0.10194 -0.13416 -0.096941 0.16467 0.099795 -0.0078104 -0.042453 -0.1054 -0.19756 -0.17173 -0.027326 -0.063174 -0.028186 0.064933 -0.17002 0.16513 0.05462 0.17644 0.14587 -0.09488 0.16295 0.067215 0.018568 0.11757 -0.18001 0.043138 -0.14502 0.098018 -0.023589 -0.054642 -0.095169 0.0010284 0.10291 0.10571 0.060759 0.022854 0.18054 0.1825 -0.051336 -0.015545 0.026599 0.065904 -0.0791 0.017765 -0.1415 0.15144 0.11423 0.042912 -0.10436 0.056121 0.038905 0.024363 0.16451 -0.010289 0.068625 0.027941 0.055178 0.011268 0.057101 -0.010325 0.042842 0.046732 -0.083625 -0.095357 0.14307 0.065604 0.34206 -0.058211 -0.0072627 -0.19989 -0.14388 0.0056135 -0.076292 -0.14745 
uc 0.17195 0.035048 -0.028927 -0.041863 0.12331 0.11723 -0.30651 -0.004542 0.094358 0.063091 -0.14897 0.13145 -0.044467 0.13495 -0.14246 0.063987 0.16964 -0.056583 -0.037792 -0.15252 0.014108 -0.025493 0.059962 -0.03316 -0.16907 -0.10903 0.12144 -0.18082 -0.11931 0.20171 0.10523 -0.016166 -0.055713 -0.1291 -0.24131 -0.21314 -0.031496 -0.078226 -0.044406 0.080512 -0.19652 0.20287 0.057825 0.22507 0.18413 -0.1406 0.21822 0.076824 0.0080197 0.14571 -0.25108 0.054453 -0.19557 0.12978 -0.021516 -0.075152 -0.12863 0.0081059 0.1284 0.13651 0.064689 0.037074 0.22913 0.23866 -0.075725 -0.015256 0.019848 0.089749 -0.10944 0.039544 -0.18649 0.1898 0.133 0.04658 -0.14413 0.066943 0.043992 0.040116 0.20974 -0.0084958 0.1069 0.027453 0.070418 -0.010367 0.073631 -0.02464 0.068336 0.067254 -0.1034 -0.13992 0.17884 0.069736 0.44235 -0.086193 -0.012445 -0.24803 -0.18889 -0.0023526 -0.11491 -0.1803 
udd 0.095372 0.031594 -0.020965 -0.031765 0.067501 0.063979 -0.16675 0.0030521 0.045869 0.044592 -0.084636 0.067981 -0.016593 0.080311 -0.062247 0.034993 0.082267 -0.037934 -0.016522 -0.08135 0.0079133 -0.014479 0.035557 -0.010973 -0.092722 -0.065994 0.071472 -0.10134 -0.063481 0.098705 0.057934 -0.01293 -0.023656 -0.070293 -0.1325 -0.11729 -0.017139 -0.049234 -0.033322 0.051454 -0.10775 0.10578 0.033523 0.11441 0.10227 -0.080546 0.10851 0.053508 0.0085207 0.076996 -0.13697 0.034991 -0.10893 0.078991 -0.023651 -0.038917 -0.078836 0.012596 0.078931 0.082081 0.051709 0.023341 0.1288 0.13098 -0.038892 -0.010241 0.01606 0.038945 -0.068527 0.017134 -0.098786 0.099895 0.076563 0.024136 -0.080214 0.04175 0.03122 0.016434 0.11106 -0.014884 0.060599 0.0075787 0.041974 0.0041975 0.047284 -0.00040723 0.036542 0.046529 -0.054813 -0.069379 0.091664 0.047671 0.24328 -0.055864 -0.012897 -0.13284 -0.10644 0.0006923 -0.062289 -0.096219 
display_text_range 0.054035 0.0075313 0.0013258 -0.0074604 0.042133 0.051391 -0.095181 -0.003512 0.030449 0.038533 -0.049628 0.045388 -0.0034033 0.050497 -0.03192 0.010716 0.048385 -0.034384 -0.014522 -0.062473 0.0094858 -0.0077822 0.032702 -0.0058091 -0.064732 -0.043189 0.039288 -0.052012 -0.038147 0.079432 0.046516 -0.0014723 -0.012466 -0.03525 -0.079001 -0.070609 -0.013002 -0.012281 -0.02008 0.0086413 -0.069176 0.073512 0.014474 0.081674 0.068393 -0.033386 0.066259 0.013371 0.012503 0.049948 -0.084076 0.02323 -0.058718 0.051935 -0.010832 -0.019516 -0.039486 -0.0033689 0.047663 0.033234 0.014865 0.015516 0.072455 0.086572 -0.014053 -0.011055 0.025466 0.036444 -0.036833 0.017697 -0.064441 0.065779 0.044799 0.014098 -0.047909 0.0161 0.025369 0.026045 0.075087 -0.01291 0.04601 0.020979 0.021152 -0.0042664 0.020038 0.00070523 0.010524 0.024533 -0.029803 -0.052694 0.066389 0.027454 0.14703 -0.029223 -0.013396 -0.086676 -0.069136 0.0081365 -0.032204 -0.056703 
ub 0.11985 0.025627 -0.019392 -0.02226 0.084808 0.091953 -0.21076 -0.0059095 0.075028 0.045994 -0.11027 0.090993 -0.024409 0.10436 -0.093814 0.046701 0.11987 -0.037988 -0.02234 -0.10164 -0.0027807 -0.019644 0.055453 -0.01939 -0.10967 -0.090254 0.084793 -0.12161 -0.088188 0.13423 0.077101 -0.010425 -0.044533 -0.087705 -0.1848 -0.15724 -0.021242 -0.05409 -0.025682 0.075685 -0.15628 0.1449 0.044939 0.16613 0.13367 -0.091439 0.14851 0.062574 0.0098255 0.11377 -0.16965 0.031728 -0.14594 0.093986 -0.028461 -0.052169 -0.087111 0.0016091 0.09062 0.10697 0.042257 0.031333 0.1495 0.16613 -0.062859 -0.021312 0.011789 0.060134 -0.074905 0.015528 -0.13827 0.14076 0.098357 0.040582 -0.10982 0.064962 0.036838 0.019999 0.14282 -0.015536 0.069856 0.027074 0.048131 -0.0043068 0.051037 -0.016831 0.047319 0.056924 -0.084243 -0.10326 0.12939 0.06055 0.31642 -0.066497 -0.017195 -0.17876 -0.13277 -0.0089586 -0.08185 -0.13705 
uff 0.13519 0.043894 -0.025686 -0.044863 0.10279 0.11384 -0.26247 -0.0075267 0.068822 0.061176 -0.12112 0.12463 -0.031467 0.12414 -0.10773 0.04502 0.14106 -0.050878 -0.01856 -0.12725 0.015826 -0.032843 0.067279 -0.023805 -0.14134 -0.10217 0.10901 -0.14804 -0.10882 0.175 0.10838 0.0029573 -0.04564 -0.096347 -0.2012 -0.18717 -0.032269 -0.064906 -0.049362 0.073423 -0.17081 0.17713 0.048928 0.18627 0.15843 -0.12031 0.18109 0.069925 0.015504 0.12157 -0.20445 0.048619 -0.15305 0.10866 -0.029326 -0.060447 -0.11529 -0.004392 0.1095 0.11116 0.055518 0.034826 0.19123 0.19738 -0.065366 -0.03004 0.026806 0.068056 -0.087025 0.025816 -0.15632 0.15922 0.11555 0.041725 -0.12375 0.063721 0.029692 0.032609 0.17238 -0.014275 0.082802 0.024314 0.057759 -0.0051775 0.06639 -0.0068971 0.055481 0.06055 -0.10008 -0.11583 0.15207 0.058989 0.35401 -0.076046 -0.0037112 -0.21576 -0.1552 -0.00059684 -0.080569 -0.16287 
laughing 0.049384 0.012605 0.0089242 -0.0096558 0.018397 0.055121 -0.1072 0.0012863 0.045697 0.063334 -0.03713 0.086822 0.005757 0.066561 -0.02764 0.0022223 0.068002 -0.044113 0.00062172 -0.066496 0.0041928 -0.009406 0.022337 -0.017171 -0.077408 -0.033879 0.065599 -0.066734 -0.054497 0.11244 0.071279 0.0053173 -0.0096499 -0.048104 -0.077368 -0.07715 0.021506 -0.0018416 -0.029783 0.0038634 -0.086202 0.087903 0.023443 0.091654 0.086782 -0.050829 0.076987 0.011091 0.023768 0.081655 -0.083923 0.036649 -0.06607 0.085374 -0.00067828 -0.04095 -0.0646 -0.0003623 0.055296 0.043785 0.022093 0.017152 0.10732 0.12767 -0.0077909 -0.020743 0.070982 0.038388 -0.047771 0.0089431 -0.060367 0.088341 0.062219 0.029302 -0.036377 0.005509 0.028048 0.035879 0.085955 -0.023203 0.0512 0.042387 0.015161 -0.016981 0.035633 0.00024684 0.026051 0.031495 -0.037722 -0.059511 0.076185 0.033349 0.16042 -0.014864 -0.017301 -0.11629 -0.080326 0.004566 -0.03033 -0.091002 
i 0.051193 0.012726 -0.0018913 -0.0089379 0.028094 0.059613 -0.11821 -0.007226 0.040653 0.047242 -0.04301 0.079543 0.004564 0.072946 -0.034607 0.005827 0.070973 -0.0575 -0.003363 -0.068511 0.0025837 -0.016402 0.026642 -0.013762 -0.088209 -0.044353 0.048986 -0.072093 -0.045891 0.10699 0.068661 -0.0043956 -0.013901 -0.046392 -0.077263 -0.094685 0.016761 -0.0059323 -0.029269 0.0084258 -0.089064 0.077664 0.029063 0.096633 0.084359 -0.04321 0.077794 0.022286 0.034777 0.076815 -0.087094 0.030514 -0.076676 0.072194 -0.0074139 -0.037467 -0.064705 -0.0025679 0.046121 0.052012 0.035886 0.027346 0.10868 0.11561 -0.0195 -0.013653 0.046165 0.033963 -0.061807 -0.0027093 -0.06128 0.096403 0.067576 0.036822 -0.042254 0.011654 0.0245 0.030927 0.084911 -0.013674 0.054612 0.030212 0.013655 -0.0075289 0.050911 0.0086525 0.018387 0.041435 -0.044127 -0.044231 0.076353 0.037962 0.17554 -0.013924 -0.016028 -0.11294 -0.07204 0.0087052 -0.031399 -0.074608 
world 0.084035 0.01716 -0.015113 -0.020831 0.053462 0.069988 -0.15598 -0.0091549 0.0503 0.070515 -0.068753 0.10169 -0.0062994 0.080143 -0.041686 0.015621 0.079962 -0.049394 0.0023303 -0.087411 0.010851 -0.019739 0.039833 -0.022182 -0.091534 -0.056904 0.078818 -0.098866 -0.068785 0.14389 0.074276 0.0031076 -0.023547 -0.057924 -0.12008 -0.10675 0.0052813 -0.025985 -0.032271 0.020603 -0.10944 0.10349 0.042168 0.11226 0.099404 -0.078614 0.093726 0.027894 0.019896 0.1036 -0.11717 0.026605 -0.090333 0.081281 -0.0012126 -0.032998 -0.068555 -0.0078412 0.075458 0.060408 0.042273 0.020197 0.13525 0.15373 -0.029168 -0.011653 0.057841 0.043839 -0.058826 0.020454 -0.095309 0.1183 0.082327 0.043644 -0.070975 0.012104 0.027051 0.047869 0.1152 -0.01842 0.060744 0.034139 0.020664 -0.019003 0.049834 0.0033944 0.031663 0.048608 -0.059673 -0.064366 0.108 0.049384 0.22359 -0.029166 -0.013103 -0.15661 -0.10908 -0.0070626 -0.052753 -0.09955 
udc 0.090827 0.012311 -0.003149 -0.01765 0.04879 0.06199 -0.17201 -0.0067058 0.057839 0.052962 -0.075043 0.10513 -0.018249 0.073411 -0.062546 0.021177 0.092318 -0.058869 -0.016018 -0.083702 0.0075377 -0.020616 0.039991 -0.019885 -0.098145 -0.058588 0.077104 -0.10949 -0.074131 0.13353 0.083508 -0.0022388 -0.037963 -0.076343 -0.13586 -0.12256 -0.01274 -0.040338 -0.026377 0.029986 -0.12285 0.11954 0.042462 0.12369 0.099628 -0.0656 0.10576 0.028568 0.019751 0.095964 -0.13746 0.028096 -0.094102 0.098762 -0.0056711 -0.032503 -0.087627 -0.0036732 0.071103 0.070324 0.049968 0.016044 0.14135 0.14944 -0.039818 -0.023354 0.049756 0.049695 -0.067286 0.0069587 -0.10218 0.12149 0.086992 0.044844 -0.068063 0.032117 0.03077 0.041794 0.11666 -0.021071 0.062359 0.025233 0.031391 -0.0077415 0.046338 -1.6782e-06 0.027342 0.041977 -0.065323 -0.081011 0.092806 0.04319 0.22897 -0.027831 -0.015039 -0.15938 -0.11408 0.00041836 -0.063307 -0.10965 
president 0.098402 0.018392 -0.0061059 -0.020031 0.064864 0.088514 -0.18896 -0.011288 0.059952 0.078337 -0.073659 0.12039 -0.011268 0.092721 -0.055924 0.0050316 0.098876 -0.054377 -0.0042121 -0.1113 0.0069112 -0.028675 0.041163 -0.012721 -0.12766 -0.074461 0.082532 -0.12685 -0.080014 0.15534 0.082017 0.0052736 -0.02746 -0.074783 -0.15045 -0.13745 0.001031 -0.035089 -0.035302 0.03288 -0.13475 0.14391 0.042681 0.15229 0.11748 -0.086412 0.12649 0.045561 0.041939 0.1334 -0.16366 0.041299 -0.11849 0.11447 -0.0022818 -0.057702 -0.095301 -0.013049 0.089711 0.078775 0.053251 0.023526 0.1765 0.17481 -0.024043 -0.02032 0.056475 0.064992 -0.08794 0.015386 -0.11955 0.12856 0.11058 0.046154 -0.07861 0.033065 0.047949 0.037996 0.15087 -0.023549 0.076199 0.04503 0.045241 -0.012592 0.06523 -0.0063344 0.043965 0.058688 -0.07354 -0.088302 0.12519 0.049553 0.28335 -0.025993 -0.022106 -0.18745 -0.12834 0.0018706 -0.069647 -0.1215 
ude 0.059873 0.012615 -0.017188 -0.014113 0.061761 0.056864 -0.10953 -0.0035823 0.033711 0.026666 -0.06596 0.040548 -0.02754 0.045727 -0.068896 0.021096 0.062512 -0.021876 -0.019551 -0.051229 -0.00046043 -0.0032089 0.027181 -0.0087511 -0.05231 -0.040748 0.038451 -0.060293 -0.046952 0.071564 0.034475 0.00091831 -0.029737 -0.050683 -0.087352 -0.082095 -0.030782 -0.041863 -0.0087972 0.03704 -0.088905 0.070542 0.017952 0.089275 0.066958 -0.053706 0.07968 0.030498 0.0037855 0.05212 -0.081073 0.0079369 -0.069558 0.046944 -0.024294 -0.029941 -0.056532 0.0073788 0.044959 0.065001 0.040483 0.023476 0.069445 0.065997 -0.032623 -0.0055525 -0.012826 0.022268 -0.04696 0.021038 -0.059514 0.057323 0.036458 0.0096461 -0.066061 0.044836 0.022251 -0.0067287 0.064323 0.0024359 0.03972 0.0099906 0.036692 0.019007 0.024366 -0.0094201 0.020723 0.023155 -0.036225 -0.05582 0.054886 0.021903 0.1689 -0.034184 0.0065383 -0.079511 -0.077191 0.00033597 -0.041309 -0.07522 
st 0.06777 0.023838 0.0021239 -0.015854 0.040551 0.055863 -0.13913 0.0036597 0.039724 0.058793 -0.05727 0.092526 -0.0031686 0.066555 -0.034997 0.011985 0.083704 -0.049939 -0.0032313 -0.079306 0.0080183 -0.014696 0.031448 -0.017487 -0.0878 -0.056211 0.069945 -0.082963 -0.057335 0.1249 0.067668 0.0040119 -0.016122 -0.05552 -0.102 -0.10836 0.00027951 -0.028681 -0.026133 0.0068995 -0.088794 0.10725 0.033504 0.10333 0.089137 -0.061426 0.098541 0.026955 0.028133 0.095457 -0.10481 0.021153 -0.077971 0.08702 -0.010433 -0.03026 -0.07553 -0.012471 0.062377 0.057885 0.039028 0.023755 0.11431 0.13971 -0.015045 -0.020768 0.038888 0.047678 -0.066163 0.0035433 -0.075247 0.11133 0.067551 0.039243 -0.061529 0.018756 0.038319 0.044696 0.096501 -0.013648 0.050553 0.026908 0.025117 -0.0074828 0.049968 -0.0048372 0.028724 0.039178 -0.058665 -0.053109 0.088883 0.043723 0.20954 -0.019112 -0.024596 -0.12495 -0.10334 -0.0087518 -0.041088 -0.10259 
states 0.024713 0.010828 -0.0045696 -0.016541 0.0074269 0.031334 -0.05289 0.00014175 0.019248 0.03809 -0.013144 0.059096 -0.0025826 0.038392 0.00082045 -0.011994 0.027564 -0.030776 0.010308 -0.040591 -0.0038483 -0.0084261 0.021615 -0.0034023 -0.043051 -0.020809 0.041629 -0.039537 -0.023779 0.072387 0.029283 0.015074 -0.009699 -0.032577 -0.03212 -0.042591 0.0081996 -0.0026143 -0.009096 -0.0079632 -0.035314 0.051139 0.020847 0.055596 0.043921 -0.031705 0.028506 0.011404 0.01476 0.047941 -0.044305 0.019802 -0.040816 0.040999 -0.0047901 -0.017698 -0.041682 -0.0040291 0.020896 0.027508 0.016948 0.0023498 0.066708 0.06708 -0.013454 -0.00039679 0.043716 0.01165 -0.030979 0.0064329 -0.029045 0.040786 0.033361 0.024301 -0.013705 -0.0029073 0.010562 0.036754 0.039786 -0.022399 0.025213 0.028174 0.0088894 -0.011771 0.032592 0.00083582 0.017595 0.024214 -0.013967 -0.036935 0.05126 0.022968 0.081721 0.0073027 -0.018071 -0.056323 -0.037576 -0.0065679 -0.012256 -0.038739 
colleagues 0.086053 0.0075073 -0.0010839 -0.032134 0.051928 0.068106 -0.17989 -0.0082824 0.046242 0.075196 -0.070418 0.1013 0.001319 0.092919 -0.047629 0.0009776 0.090642 -0.05305 -0.012985 -0.092407 0.007351 -0.015349 0.040637 -0.028372 -0.10894 -0.06288 0.079883 -0.1072 -0.064582 0.15198 0.075511 0.010325 -0.028016 -0.068621 -0.1253 -0.12799 0.0041186 -0.026054 -0.025297 0.031974 -0.12637 0.12804 0.036795 0.1318 0.11643 -0.084983 0.11888 0.041182 0.037573 0.11221 -0.13691 0.030899 -0.11151 0.09709 -0.012397 -0.041392 -0.091553 -0.0027057 0.084595 0.079721 0.050811 0.028679 0.15324 0.16006 -0.023964 -0.010252 0.062072 0.052577 -0.083395 0.0086601 -0.098795 0.12512 0.1004 0.043876 -0.072428 0.028134 0.038592 0.03841 0.14009 -0.03232 0.064691 0.03318 0.037768 -0.01882 0.065209 -0.0082753 0.024895 0.051144 -0.069135 -0.085548 0.10802 0.048652 0.26146 -0.03992 -0.024958 -0.15739 -0.1235 -0.0060432 -0.064635 -0.12878 
aananavarro 0.046076 -0.0045975 -0.0035217 -0.020903 0.016577 0.041499 -0.10227 0.0024419 0.046962 0.059084 -0.039769 0.093475 0.00077836 0.057976 -0.023314 -0.013563 0.052754 -0.054013 0.0013081 -0.080168 -0.00043376 -0.026504 0.025492 -0.011252 -0.081458 -0.042389 0.065995 -0.077668 -0.049107 0.12827 0.0743 0.0034839 -0.020875 -0.057224 -0.084562 -0.083617 0.010889 -0.016424 -0.020664 0.0044593 -0.07576 0.083761 0.04285 0.08372 0.084387 -0.053077 0.070327 0.0051413 0.027683 0.083892 -0.086452 0.029809 -0.071406 0.069692 0.00091431 -0.035506 -0.061819 -0.0056294 0.054031 0.040391 0.015642 0.017738 0.11165 0.12777 -0.019471 -0.0083326 0.058955 0.044797 -0.065134 -0.0012473 -0.06527 0.10303 0.078809 0.037548 -0.033983 0.00049326 0.028067 0.047631 0.090864 -0.02967 0.063871 0.044902 0.010274 -0.013566 0.05047 0.0051114 0.011498 0.040062 -0.047729 -0.04564 0.085298 0.037479 0.15978 -0.014725 -0.026513 -0.11458 -0.086341 0.013417 -0.044852 -0.071041 
fool 0.070187 0.005341 -0.0088938 -0.013092 0.043956 0.059772 -0.1247 -0.0082269 0.036236 0.057326 -0.047214 0.10331 -0.0072982 0.068762 -0.039469 0.0052433 0.063048 -0.049386 0.0087314 -0.072696 0.008929 -0.010952 0.032336 -0.027157 -0.09533 -0.042513 0.075925 -0.080684 -0.044645 0.12918 0.0789 0.011351 -0.022649 -0.063613 -0.097548 -0.09479 0.014211 -0.015957 -0.024527 -0.0013283 -0.089007 0.1037 0.034366 0.10962 0.082706 -0.067238 0.079085 0.016113 0.025563 0.088185 -0.10885 0.031622 -0.089878 0.080613 0.0046412 -0.046459 -0.072058 0.0026724 0.056156 0.054584 0.037269 0.016246 0.1302 0.13442 -0.012364 -0.0098483 0.052855 0.043083 -0.052921 0.0069138 -0.068936 0.10578 0.086021 0.043529 -0.05778 0.0051415 0.040006 0.050404 0.10787 -0.016418 0.056397 0.03988 0.028838 -0.011896 0.042806 0.0022387 0.02349 0.037239 -0.038531 -0.059523 0.081155 0.037577 0.18378 -0.023555 -0.018335 -0.13953 -0.092487 -0.0018799 -0.039679 -0.094909 
blabbering 0.083786 0.0091323 0.0037367 -0.024723 0.049857 0.076478 -0.1594 -0.010828 0.047135 0.088233 -0.051953 0.12842 -0.0017398 0.094598 -0.025937 -0.0027644 0.084913 -0.078313 -0.0010682 -0.11153 0.015768 -0.023342 0.042519 -0.02734 -0.11212 -0.053263 0.082185 -0.1183 -0.066122 0.17059 0.10111 0.013174 -0.037608 -0.069022 -0.12993 -0.13446 0.0088239 -0.010075 -0.032312 -0.0040786 -0.12495 0.12188 0.049306 0.13683 0.11479 -0.073774 0.10984 0.035612 0.042414 0.12887 -0.13031 0.035755 -0.10914 0.11001 -0.0067854 -0.04089 -0.094895 -0.01456 0.080103 0.074391 0.033575 0.022176 0.16616 0.17934 -0.024438 -0.018324 0.085774 0.055015 -0.090823 0.013713 -0.10327 0.13002 0.1122 0.054508 -0.069134 0.010902 0.043315 0.051377 0.14249 -0.041438 0.080499 0.046048 0.025494 -0.031133 0.059683 -0.0084101 0.024329 0.053154 -0.050088 -0.082704 0.10767 0.055507 0.25316 -0.012163 -0.03196 -0.18043 -0.1273 0.012204 -0.063661 -0.12359 
united 0.096908 0.009675 -0.0068562 -0.030954 0.063573 0.073547 -0.17195 0.0040563 0.054059 0.070017 -0.060117 0.12336 0.0020726 0.085519 -0.047159 0.016089 0.10387 -0.067065 0.0043301 -0.10617 0.010801 -0.025134 0.046833 -0.019385 -0.12111 -0.061893 0.083702 -0.11184 -0.06179 0.16008 0.081612 0.0079515 -0.040862 -0.067627 -0.13109 -0.12752 0.0090244 -0.03376 -0.040846 0.027713 -0.11741 0.12968 0.053022 0.12698 0.11184 -0.072798 0.12091 0.035853 0.026488 0.12607 -0.14288 0.034251 -0.11477 0.10609 -0.015072 -0.051436 -0.085361 0.0018805 0.077842 0.079444 0.040867 0.031188 0.15551 0.16647 -0.023996 -0.0151 0.054938 0.061251 -0.06996 0.0125 -0.10928 0.11873 0.10183 0.041639 -0.072669 0.014744 0.029448 0.058834 0.13911 -0.022018 0.074041 0.034583 0.027944 -0.019528 0.065265 0.00083555 0.032518 0.054615 -0.064955 -0.079564 0.10338 0.051705 0.25567 -0.02885 -0.019723 -0.17401 -0.1263 0.0042359 -0.066919 -0.12052 
viewed 0.094365 0.010512 -0.0030592 -0.028747 0.057029 0.084002 -0.17207 -0.00074373 0.055492 0.076822 -0.074927 0.11574 -0.00040403 0.098631 -0.044378 0.016593 0.1006 -0.069662 -0.0061739 -0.094757 0.0077548 -0.032579 0.041144 -0.016138 -0.10492 -0.067245 0.078096 -0.11274 -0.066799 0.15404 0.092433 -0.0024615 -0.028874 -0.067609 -0.13862 -0.13491 0.012103 -0.026279 -0.038065 0.010772 -0.12945 0.13552 0.041799 0.12887 0.12397 -0.086895 0.10361 0.029588 0.039587 0.12596 -0.13713 0.045888 -0.10775 0.098597 -0.014761 -0.040532 -0.094899 -0.0011602 0.068616 0.07098 0.040172 0.021552 0.16138 0.16485 -0.034435 -0.025039 0.068571 0.061188 -0.07974 0.0089757 -0.10626 0.11879 0.099344 0.043066 -0.05997 0.034927 0.044279 0.045901 0.135 -0.023296 0.077426 0.034905 0.026164 -0.013092 0.050876 6.4859e-05 0.040058 0.052547 -0.058934 -0.079689 0.1078 0.053693 0.26064 -0.029989 -0.016699 -0.16235 -0.1258 0.0087615 -0.065943 -0.12649 
ucc 0.099032 0.014796 -0.0054725 -0.031721 0.074234 0.084925 -0.18001 0.0014161 0.059533 0.063246 -0.074138 0.087808 -0.017519 0.080293 -0.072122 0.02823 0.10305 -0.053161 -0.025008 -0.084272 0.00062456 -0.024806 0.048459 -0.024091 -0.10311 -0.072293 0.076494 -0.10562 -0.08022 0.13353 0.077991 -0.00073406 -0.038924 -0.076958 -0.13809 -0.12322 -0.020484 -0.049272 -0.033479 0.04226 -0.12436 0.11442 0.036472 0.12516 0.10935 -0.067414 0.12563 0.041423 0.024927 0.10771 -0.13403 0.04035 -0.11731 0.094487 -0.010954 -0.046431 -0.088769 0.00035858 0.073397 0.067785 0.047034 0.028548 0.14993 0.13542 -0.02963 -0.0222 0.016604 0.053989 -0.067996 0.006597 -0.10177 0.11564 0.076927 0.038631 -0.079608 0.045912 0.027592 0.021251 0.1274 -0.0061807 0.071898 0.03539 0.038921 -0.012368 0.043149 -0.019002 0.046258 0.035561 -0.06714 -0.080415 0.10607 0.041039 0.25037 -0.040704 -0.0090355 -0.15462 -0.10474 -0.0049044 -0.072639 -0.10701 
tweet 0.079087 0.021908 -0.0025914 -0.02365 0.045936 0.07495 -0.1458 -0.00055718 0.041545 0.052146 -0.065053 0.091438 -0.020924 0.075803 -0.061623 0.02057 0.088617 -0.048769 -0.012138 -0.086187 0.012384 -0.01272 0.031103 -0.013523 -0.082045 -0.055726 0.057358 -0.094049 -0.059582 0.11054 0.067537 -0.0069542 -0.027071 -0.066714 -0.11986 -0.10804 0.00117 -0.024282 -0.033281 0.025997 -0.098635 0.11009 0.032733 0.1198 0.10347 -0.058922 0.092335 0.02829 0.011443 0.090272 -0.11441 0.016188 -0.099371 0.081663 -0.0083403 -0.040445 -0.079179 0.0016351 0.06989 0.06832 0.044607 0.031996 0.12743 0.13068 -0.023147 -0.012891 0.03752 0.038534 -0.056373 0.0073599 -0.085279 0.098129 0.07009 0.03917 -0.067914 0.034074 0.033643 0.023658 0.11092 -0.016705 0.048886 0.019086 0.023065 -0.011918 0.050418 -0.0063232 0.037885 0.036539 -0.060613 -0.061047 0.083185 0.043197 0.21662 -0.033608 -0.010724 -0.13657 -0.10053 0.0092886 -0.043831 -0.094667 
us 0.057917 0.013855 -0.014525 -0.024446 0.040219 0.050455 -0.11117 -0.0069951 0.039152 0.033845 -0.04247 0.071086 -0.0085784 0.060146 -0.047615 0.0045351 0.052185 -0.041391 -0.0064136 -0.053158 0.011864 -0.012442 0.035929 -0.015873 -0.069697 -0.051031 0.047832 -0.066014 -0.046394 0.094718 0.042476 0.0080355 -0.02843 -0.044293 -0.089111 -0.084459 -0.0006531 -0.02085 -0.027705 0.025708 -0.079043 0.069723 0.031112 0.08208 0.070519 -0.054725 0.079275 0.023886 0.015063 0.076521 -0.09503 0.016246 -0.060973 0.049914 -0.015848 -0.033373 -0.051732 0.0046102 0.0394 0.044925 0.032192 0.02122 0.093072 0.093865 -0.0248 -0.00016889 0.023456 0.031361 -0.04207 0.0074464 -0.059567 0.087456 0.056702 0.029653 -0.053431 0.018304 0.023111 0.019628 0.07474 -0.021789 0.049444 0.024841 0.027439 -0.010726 0.038074 -0.0029845 0.023341 0.02015 -0.042789 -0.046467 0.074389 0.029446 0.17109 -0.024857 -0.013656 -0.10003 -0.08089 0.0024775 -0.041348 -0.082552 
ubc 0.13908 0.040029 -0.022446 -0.042849 0.12031 0.11842 -0.26406 -0.011982 0.071914 0.05753 -0.12162 0.10159 -0.050492 0.10483 -0.11281 0.05071 0.13748 -0.036892 -0.044536 -0.11857 0.014866 -0.025456 0.054091 -0.028042 -0.13305 -0.09706 0.1003 -0.1296 -0.10424 0.16159 0.090538 -0.002295 -0.051568 -0.090775 -0.20179 -0.17069 -0.032945 -0.067541 -0.044991 0.077977 -0.18249 0.16813 0.038012 0.18243 0.16121 -0.11353 0.18848 0.080724 0.0053304 0.11184 -0.20754 0.041483 -0.16186 0.10244 -0.025897 -0.050673 -0.10285 0.00681 0.12177 0.1175 0.057945 0.041069 0.18097 0.18169 -0.057975 -0.024763 -0.0099894 0.069591 -0.082873 0.016223 -0.14914 0.14502 0.10359 0.030085 -0.13971 0.060638 0.025154 0.015831 0.16903 -0.0073844 0.081263 0.020251 0.057931 0.0087702 0.064174 -0.023805 0.070521 0.065725 -0.1078 -0.10488 0.1262 0.058055 0.36545 -0.079603 -0.0075239 -0.20151 -0.15629 -0.009446 -0.085976 -0.1506 
market 0.051729 0.0062806 -0.0031116 -0.0081297 0.029372 0.040386 -0.08007 0.0017096 0.03321 0.028454 -0.030704 0.057058 -0.01075 0.0483 -0.03399 0.0098028 0.042705 -0.021296 -0.0016811 -0.037694 0.0051514 -0.0043805 0.022164 -0.01369 -0.0607 -0.023637 0.028747 -0.049483 -0.031312 0.073487 0.032053 0.0099267 -0.018328 -0.036646 -0.066004 -0.065933 0.0029741 -0.024227 -0.015393 0.019855 -0.064456 0.052403 0.029452 0.067587 0.045807 -0.041024 0.050523 0.018279 0.0050976 0.056202 -0.064031 0.0087519 -0.047877 0.051421 -0.0043978 -0.031075 -0.04538 0.0011142 0.031515 0.037439 0.023149 0.016919 0.069066 0.069681 -0.02251 -0.0099495 0.019412 0.028482 -0.029252 0.013281 -0.046637 0.06565 0.047655 0.02497 -0.045248 0.0050959 0.026468 0.029499 0.06238 -0.0093177 0.024742 0.013213 0.01122 -0.0033772 0.024748 0.0065318 0.022089 0.015121 -0.028335 -0.042979 0.051467 0.018649 0.11727 -0.020747 -0.004772 -0.086261 -0.061825 0.00091021 -0.025144 -0.048314 
new 0.020951 0.0052115 -0.0038361 -0.0085776 0.023582 0.0098723 -0.034626 0.0070534 0.0037503 0.0048271 -0.027329 0.024116 -0.0034358 0.0065502 -0.0069225 -0.0024631 0.014322 -0.017246 0.0019508 -0.011669 0.0086527 -0.0031176 0.011247 0.0058368 -0.018332 -0.017822 0.017116 -0.024454 -0.0077395 0.015413 0.023668 0.0036009 -0.0066175 -0.0108 -0.033229 -0.027592 -0.0049507 -0.01372 -0.0045122 0.013373 -0.024421 0.020437 0.0054969 0.020042 0.026835 -0.01535 0.028669 0.0040246 0.012419 0.026491 -0.037529 0.0067471 -0.027604 0.0099645 0.0021096 -0.018402 -0.014791 0.0085159 0.014899 0.016381 0.010117 -0.0030666 0.037095 0.019767 -0.0081496 0.00093377 0.0055659 0.0019536 -0.0067549 -0.0037131 -0.028086 0.014323 0.016379 0.013615 -0.028434 0.010373 0.00348 0.0085129 0.019297 0.0039145 0.018087 -0.0030914 0.0046919 0.0014915 0.0035914 -0.0085525 0.0029176 0.0065828 -0.021491 -0.011028 0.021667 0.0011892 0.060203 -0.018743 -0.0049218 -0.026595 -0.026069 -0.0086307 -0.022824 -0.024178 
back 0.031078 0.0084942 0.0038522 -0.0093962 0.027662 0.043937 -0.083558 -0.0055555 0.035331 0.032455 -0.0278 0.051897 0.0034 0.04062 -0.032893 0.0087499 0.042197 -0.037496 0.0059919 -0.04637 0.00092798 -0.0018746 0.028604 -0.014894 -0.060614 -0.021347 0.046608 -0.047764 -0.042794 0.06913 0.047474 0.0073341 -0.021332 -0.044785 -0.060343 -0.058916 0.0090872 -0.014808 -0.011551 0.00087536 -0.056622 0.054308 0.015808 0.056627 0.059877 -0.043004 0.062198 0.020793 0.0052264 0.053266 -0.072963 0.011574 -0.051927 0.056665 -0.0023089 -0.019458 -0.048249 -0.011446 0.042472 0.023268 0.0099545 0.0086724 0.067474 0.080478 -0.021415 -0.0068981 0.023604 0.021374 -0.030864 0.0005554 -0.037748 0.060532 0.047833 0.02374 -0.04101 0.0027841 0.014331 0.013999 0.06628 -0.0086424 0.041275 0.029147 0.021368 -0.015182 0.019948 -0.00078474 0.0052804 0.024665 -0.028935 -0.026715 0.057181 0.020927 0.11384 -0.022891 -0.0068633 -0.075563 -0.055681 0.0075119 -0.020262 -0.051663 
price 0.028011 0.0051535 -0.00094827 -0.0062438 0.019141 0.031804 -0.06253 -0.010814 0.0083358 0.020261 -0.023406 0.025014 -0.0032889 0.020875 -0.017856 -0.0058484 0.024502 -0.017417 0.0031151 -0.029208 0.00099581 -0.012918 0.020198 -0.0047205 -0.028131 -0.027546 0.020295 -0.044035 -0.017327 0.037776 0.023307 -0.0058645 -0.018767 -0.031022 -0.051489 -0.040638 0.00097964 -0.019607 -0.015314 0.010294 -0.046627 0.036471 0.0037848 0.053677 0.034934 -0.033969 0.047697 0.012067 0.012443 0.038774 -0.039129 0.0038752 -0.027248 0.03058 -0.010698 -0.021915 -0.024288 0.0065193 0.015926 0.021685 0.0049966 0.010514 0.049388 0.057256 -0.017696 0.0049086 0.0075794 0.022475 -0.030686 0.0087125 -0.03559 0.038263 0.03376 0.0066521 -0.026236 0.0029406 0.018058 0.019653 0.036801 -7.1329e-05 0.022394 0.0062366 0.0077401 -0.011726 0.011844 -0.0096424 0.00052819 0.020492 -0.010775 -0.032586 0.041394 0.0099252 0.09231 -0.017004 0.00068306 -0.060175 -0.045591 -0.0099603 -0.025528 -0.043291 
ueb 0.14462 0.040081 -0.033172 -0.043517 0.11997 0.10451 -0.27102 -0.020635 0.07713 0.044976 -0.14123 0.076466 -0.041135 0.11891 -0.14664 0.06579 0.14932 -0.026677 -0.043142 -0.11169 0.015681 -0.01342 0.051471 -0.016227 -0.13636 -0.10272 0.097466 -0.1424 -0.1093 0.14128 0.089024 -0.020898 -0.055233 -0.10162 -0.21343 -0.19155 -0.052274 -0.080183 -0.045636 0.098882 -0.19738 0.16281 0.053336 0.19267 0.14199 -0.12919 0.19362 0.089161 -0.00034614 0.11162 -0.21572 0.042455 -0.16712 0.10699 -0.03406 -0.0608 -0.11847 0.012617 0.11981 0.12099 0.066782 0.038291 0.16288 0.17913 -0.08019 -0.020714 -0.017746 0.064659 -0.079482 0.0237 -0.16776 0.15143 0.10639 0.021178 -0.15049 0.080402 0.025964 0.0032475 0.16505 -0.0097352 0.067994 0.0091274 0.063426 0.02402 0.044388 -0.029081 0.065315 0.05064 -0.099152 -0.11529 0.14265 0.060048 0.3873 -0.092508 0.0015849 -0.19306 -0.15494 0.0047175 -0.092749 -0.15389 
ufc 0.14088 0.034111 -0.033789 -0.032706 0.103 0.09948 -0.25422 -0.007204 0.079049 0.052751 -0.12074 0.093779 -0.042453 0.1195 -0.11362 0.046261 0.13406 -0.043146 -0.043186 -0.12219 0.0016862 -0.014762 0.047277 -0.02077 -0.13522 -0.10586 0.093102 -0.1488 -0.09992 0.16432 0.093583 -0.0019174 -0.055424 -0.10825 -0.21104 -0.17563 -0.04356 -0.077724 -0.031593 0.086218 -0.17837 0.15524 0.044977 0.18612 0.15592 -0.10829 0.17584 0.06951 0.0046508 0.10786 -0.21161 0.048329 -0.1678 0.099369 -0.019196 -0.06248 -0.11618 0.0071786 0.11335 0.1177 0.065815 0.031402 0.18144 0.19198 -0.056514 -0.015601 0.0014389 0.064981 -0.085094 0.027484 -0.15216 0.15642 0.099503 0.033707 -0.13542 0.074904 0.040696 0.023088 0.17334 -0.0084615 0.070673 0.018349 0.067433 0.014817 0.060103 -0.031645 0.055586 0.049638 -0.09991 -0.11317 0.14125 0.058807 0.37024 -0.079015 0.0023418 -0.19515 -0.16137 0.0031422 -0.095479 -0.15345 
well 0.061724 0.0063488 -0.01045 -0.01628 0.032962 0.035134 -0.11172 0.0023227 0.025717 0.027457 -0.054606 0.050842 -0.0027795 0.053781 -0.046928 0.016904 0.052291 -0.035494 -0.0059334 -0.045522 0.0018257 -0.0037756 0.034453 -0.0026208 -0.069941 -0.037108 0.05181 -0.054726 -0.036263 0.085988 0.037634 -0.0050268 -0.018719 -0.039265 -0.081184 -0.062443 -0.010354 -0.029302 -0.022857 0.017035 -0.081576 0.062032 0.025102 0.076486 0.060609 -0.052798 0.071556 0.030457 0.018858 0.067799 -0.083461 0.0095047 -0.067308 0.059148 -0.0020232 -0.014586 -0.039484 0.0057286 0.046541 0.04086 0.026972 0.015564 0.07969 0.084033 -0.012299 -0.0046083 0.026787 0.029655 -0.041103 0.017463 -0.060945 0.076934 0.044571 0.02582 -0.051267 0.02154 0.020698 0.010381 0.078275 -0.020384 0.035469 0.020591 0.020884 -0.0043027 0.038141 0.002479 0.024644 0.031307 -0.036416 -0.034754 0.060124 0.025224 0.1371 -0.017946 -0.0052116 -0.084347 -0.075308 -0.00033864 -0.0384 -0.063779 
time 0.047871 0.019006 0.0025084 -0.020413 0.027007 0.041117 -0.11261 -0.010754 0.03605 0.044588 -0.039447 0.07705 -0.00241 0.063209 -0.033504 0.0019002 0.052509 -0.033586 -0.0032206 -0.071986 0.0014055 -0.024761 0.031299 -0.01516 -0.078175 -0.038942 0.055022 -0.075851 -0.036927 0.10196 0.045738 0.0055509 -0.026047 -0.042683 -0.075638 -0.075348 0.0081483 -0.024358 -0.021877 0.0090324 -0.082113 0.074915 0.027345 0.079768 0.065737 -0.047041 0.065739 0.031268 0.022648 0.062431 -0.091561 0.021647 -0.076668 0.053691 -0.0020755 -0.02151 -0.047822 0.006781 0.057034 0.050132 0.019375 0.016466 0.090684 0.093883 -0.0075743 -0.010219 0.033081 0.025037 -0.039148 0.0080366 -0.056858 0.072315 0.065832 0.030444 -0.045628 0.025751 0.02022 0.024589 0.07303 -0.019199 0.039315 0.025541 0.027743 -0.015226 0.036266 -0.0098441 0.022486 0.022832 -0.040004 -0.043063 0.073134 0.038758 0.14875 -0.015751 -0.0036085 -0.095428 -0.065662 0.0019155 -0.031036 -0.067378 
rm 0.046112 0.015703 -0.0030507 -0.011288 0.031738 0.043517 -0.1043 -0.0081154 0.037666 0.065063 -0.041363 0.089364 0.011529 0.057286 -0.0256 -0.003382 0.063206 -0.056634 0.0032189 -0.082217 -0.0032821 -0.01584 0.03075 -0.01793 -0.07358 -0.04497 0.061022 -0.065862 -0.050252 0.12576 0.056106 -0.00076338 -0.018964 -0.051349 -0.09108 -0.091853 0.023258 -0.016853 -0.021163 -0.0010237 -0.08058 0.092492 0.038839 0.095678 0.083277 -0.042663 0.07489 0.0090173 0.029146 0.085735 -0.092069 0.02688 -0.070422 0.071183 -0.0028688 -0.028474 -0.067091 -0.0013317 0.056584 0.047883 0.028092 0.022478 0.10746 0.11337 -0.020207 -0.0091819 0.053149 0.043284 -0.063841 -0.0008959 -0.073185 0.084941 0.073995 0.030319 -0.047115 0.012061 0.0188 0.046681 0.097296 -0.020419 0.051396 0.036401 0.013507 -0.019977 0.037002 -0.0028361 0.020961 0.035704 -0.027577 -0.041838 0.08791 0.047535 0.16508 -0.010665 -0.013419 -0.1135 -0.077749 -0.0046909 -0.038454 -0.077595 
amoncherideuxx 0.049964 -0.00057529 0.0069131 -0.01737 0.022496 0.039164 -0.10198 0.0077427 0.033782 0.057574 -0.039555 0.086151 0.0035387 0.060186 -0.025327 -0.0033564 0.053222 -0.043753 0.0054932 -0.077417 0.0099816 -0.025095 0.032962 -0.0096591 -0.078455 -0.039831 0.051252 -0.059193 -0.035527 0.10641 0.068203 0.0008664 -0.01962 -0.049978 -0.068205 -0.070639 0.024877 -0.01309 -0.023487 -0.0071957 -0.062888 0.085602 0.026897 0.073803 0.074392 -0.042684 0.069221 0.01191 0.036857 0.079687 -0.0963 0.019576 -0.061477 0.067383 0.0034408 -0.029893 -0.04932 -0.01532 0.052943 0.027631 0.026497 0.014854 0.11556 0.12433 -0.0071013 -0.0028125 0.053402 0.027931 -0.046965 0.012358 -0.055102 0.084219 0.058481 0.039145 -0.03747 0.0091943 0.018831 0.037506 0.071839 -0.025543 0.061939 0.03936 0.02275 -0.013094 0.034034 -0.0053838 0.011424 0.032843 -0.026263 -0.037838 0.066085 0.046486 0.15353 0.0056678 -0.013128 -0.123 -0.078716 0.0039352 -0.039056 -0.080944 
uad 0.09514 0.025614 -0.020006 -0.015767 0.085321 0.076139 -0.17295 -0.011309 0.047624 0.023858 -0.088483 0.039032 -0.027799 0.068279 -0.091545 0.041397 0.098313 -0.0089811 -0.03892 -0.072206 -0.00082726 -0.014031 0.041132 -0.017997 -0.080094 -0.065831 0.050389 -0.09066 -0.059605 0.091928 0.051579 -0.019071 -0.025412 -0.061606 -0.14367 -0.10548 -0.038723 -0.063452 -0.012645 0.071919 -0.11107 0.097706 0.032087 0.12354 0.0976 -0.083807 0.11433 0.055055 -0.015433 0.069424 -0.12541 0.013062 -0.10443 0.064452 -0.031736 -0.022849 -0.071464 0.001024 0.074411 0.088404 0.051494 0.014684 0.092318 0.10324 -0.046528 -0.015112 -0.034855 0.042455 -0.058536 0.0092848 -0.099222 0.089513 0.056165 0.018451 -0.095895 0.061649 0.021228 -0.011781 0.10274 -0.0090403 0.038776 -0.0020474 0.046445 0.0064987 0.016332 -0.020167 0.03498 0.041084 -0.069414 -0.068569 0.080358 0.028746 0.22993 -0.072738 0.0057915 -0.11154 -0.098843 -0.011214 -0.052132 -0.096463 
ready 0.021251 0.0083177 0.0022851 -0.016219 0.0025703 0.030998 -0.045146 0.0075 0.021729 0.020715 -0.011295 0.03582 0.00092123 0.025598 -0.0014384 -0.0066016 0.019902 -0.031632 0.0044742 -0.029804 -0.0051022 -0.017245 0.020338 0.0031957 -0.031251 -0.022557 0.019407 -0.025182 -0.013122 0.05333 0.025039 -0.0003753 -0.0090151 -0.014565 -0.041998 -0.036628 0.0096508 0.00054864 -0.0025251 -0.00645 -0.033022 0.047492 0.0089214 0.038555 0.039382 -0.030131 0.026778 0.010483 0.019187 0.047294 -0.044327 0.013389 -0.029899 0.037599 0.0044245 -0.0089832 -0.036271 -0.011013 0.014897 0.0093838 0.014989 0.00041666 0.059993 0.045878 -0.0089107 -0.0063981 0.020357 0.019979 -0.030223 -0.0045909 -0.02296 0.049581 0.039037 0.02311 -0.027997 0.013907 0.012053 0.024529 0.038998 -0.018175 0.023315 0.01458 0.010501 -0.0020094 0.015205 0.00846 0.016703 0.013597 -0.0191 -0.013989 0.029332 0.014801 0.071613 0.0044611 -0.0078742 -0.047914 -0.038966 0.010102 -0.02323 -0.028948 
l 0.027413 0.0051363 -0.0050662 -0.013224 0.011908 0.023834 -0.046537 0.0059846 0.021409 0.032276 -0.023018 0.04773 0.0099487 0.03784 0.00077247 -0.0050537 0.028207 -0.039313 0.00080666 -0.038501 -0.00051321 -0.0099887 0.024411 -0.0037062 -0.039407 -0.013819 0.030648 -0.0289 -0.026495 0.05286 0.038263 -0.0005833 -0.0057931 -0.015532 -0.046619 -0.043159 0.017689 0.0051456 -0.018527 -0.0067503 -0.036549 0.035361 0.023245 0.036955 0.050783 -0.030563 0.025602 0.013203 0.011672 0.040935 -0.046206 0.008512 -0.028104 0.044853 0.011936 -0.024881 -0.02747 -0.011607 0.016437 0.023998 0.022211 0.0040231 0.063953 0.055027 -0.0019575 -0.0044858 0.029571 0.02374 -0.020593 -0.0042554 -0.025144 0.039431 0.037593 0.010424 -0.026231 0.0016487 0.020984 0.021272 0.050786 -0.015199 0.029659 0.019618 0.0074998 -0.017052 0.021291 0.0070771 0.0018216 0.012306 -0.025236 -0.027693 0.038133 0.019068 0.080517 0.0012233 -0.017719 -0.071621 -0.043155 0.0077664 -0.021216 -0.039228 
uac 0.082569 0.029937 -0.0098259 -0.026856 0.051423 0.063435 -0.16808 -0.00019228 0.056021 0.053036 -0.069737 0.095756 -0.011367 0.083176 -0.053554 0.011158 0.10005 -0.045325 -0.021359 -0.085001 0.00017698 -0.019527 0.03678 -0.011468 -0.099486 -0.058847 0.077751 -0.095154 -0.068264 0.13149 0.069705 0.0073668 -0.036647 -0.079524 -0.13578 -0.12732 -0.0031328 -0.035228 -0.021953 0.039265 -0.12481 0.11158 0.034913 0.11672 0.10614 -0.065088 0.12077 0.028687 0.011221 0.092707 -0.13429 0.027952 -0.096661 0.079529 -0.0038451 -0.04444 -0.072818 -0.0030837 0.081596 0.062565 0.049498 0.029821 0.13991 0.14172 -0.028423 -0.0048267 0.022227 0.057099 -0.057673 0.013609 -0.10028 0.12199 0.093137 0.03505 -0.066201 0.036946 0.030288 0.026388 0.11294 -0.025012 0.051985 0.030447 0.02728 0.0039264 0.039272 -0.010606 0.033347 0.037263 -0.058156 -0.066957 0.10807 0.043255 0.23424 -0.03977 -0.0097088 -0.1388 -0.10866 -0.0088936 -0.058891 -0.10581 
today 0.046601 0.0074445 -0.0046325 -0.016071 0.032531 0.043716 -0.10289 -0.0063526 0.033522 0.045082 -0.031072 0.068973 0.0043299 0.043927 -0.03312 -0.0031844 0.061243 -0.02897 -0.0092122 -0.062332 0.0035824 -0.015382 0.015022 -0.019063 -0.051591 -0.042657 0.054493 -0.059398 -0.032243 0.084862 0.046552 0.0084096 -0.011751 -0.037988 -0.064701 -0.069533 0.0093597 -0.01108 -0.0093229 0.019652 -0.062977 0.079408 0.030437 0.065875 0.065943 -0.043929 0.059634 0.016902 0.026654 0.073426 -0.074811 0.017412 -0.062432 0.060066 0.0028666 -0.015893 -0.04785 -0.011658 0.049929 0.048035 0.027422 0.01876 0.089632 0.099254 -0.01566 -0.0095575 0.038218 0.026709 -0.03331 0.0042595 -0.047828 0.06278 0.042943 0.030088 -0.047625 0.014441 0.014729 0.016876 0.061992 -0.01119 0.042783 0.020846 0.02829 -0.00081213 0.025079 -0.0036131 0.018629 0.034517 -0.043138 -0.036354 0.067726 0.022589 0.13117 -0.019014 -0.01696 -0.097612 -0.063898 0.0030911 -0.027112 -0.070587 
uaf 0.071464 0.023787 -0.014644 -0.014002 0.057621 0.053928 -0.15504 0.00095914 0.038854 0.029143 -0.059282 0.074793 -0.023104 0.075119 -0.070104 0.015674 0.079531 -0.026137 -0.016681 -0.062919 -0.0006899 -0.023355 0.032066 -0.0060425 -0.081675 -0.066447 0.059185 -0.091442 -0.061273 0.099355 0.05651 -0.013584 -0.020164 -0.060138 -0.119 -0.0932 -0.021089 -0.02961 -0.022544 0.043764 -0.10939 0.10294 0.037006 0.10073 0.091851 -0.072926 0.10907 0.033026 0.0014702 0.084374 -0.1155 0.020595 -0.087489 0.070947 -0.01047 -0.028572 -0.075888 0.01094 0.061562 0.064373 0.038282 0.019043 0.1097 0.11327 -0.03163 -0.0077648 0.015439 0.042557 -0.049227 0.011897 -0.077904 0.098088 0.075598 0.022242 -0.065897 0.035542 0.02697 0.010749 0.1021 -0.01547 0.050523 0.024031 0.041007 0.0078673 0.043973 -0.010484 0.023788 0.033711 -0.048261 -0.067569 0.093088 0.031435 0.21947 -0.041422 -0.015136 -0.11552 -0.089278 0.0010371 -0.059002 -0.10068 
share 0.039618 0.007899 -0.0062194 -0.017279 0.013888 0.036223 -0.069224 -0.0012708 0.014782 0.029815 -0.023634 0.056779 0.0024798 0.038819 -0.014965 -0.0058304 0.037329 -0.026268 0.010633 -0.045231 0.00088309 -0.02082 0.025608 -0.010992 -0.049455 -0.034786 0.032118 -0.04725 -0.020579 0.071539 0.041973 0.0068303 -0.013421 -0.030191 -0.047011 -0.045074 0.0089579 -0.0017428 -0.023637 -0.0027506 -0.045654 0.060433 0.009486 0.059586 0.052228 -0.024331 0.050402 0.015844 0.022027 0.059586 -0.061029 0.0079445 -0.042944 0.053428 -0.0025986 -0.016159 -0.030874 0.0052692 0.036071 0.031108 0.023599 0.017004 0.072274 0.06661 -0.0076972 -0.0037797 0.028263 0.021303 -0.040738 -0.0033406 -0.036976 0.049763 0.037932 0.014111 -0.034871 0.0084628 0.022286 0.019074 0.043044 -0.020391 0.03503 0.020947 0.013964 -0.014029 0.016134 -0.002039 0.015943 0.02753 -0.015887 -0.030471 0.04361 0.024115 0.10916 -0.018008 -0.013065 -0.077076 -0.044022 -0.0053281 -0.019308 -0.043873 
arealdonaldtrump 0.070632 0.0094764 -0.0028265 -0.0093254 0.048837 0.047177 -0.11207 0.0038963 0.036191 0.039193 -0.056369 0.071607 -0.0045887 0.049679 -0.034395 0.014913 0.056858 -0.022745 -0.0099143 -0.057854 0.011538 -0.022233 0.034887 -0.011708 -0.065704 -0.049461 0.054698 -0.063481 -0.04333 0.080345 0.049493 -0.0011577 -0.015352 -0.039287 -0.086627 -0.076171 -0.0053648 -0.028647 -0.026772 0.018748 -0.080764 0.089181 0.028789 0.078463 0.082275 -0.057061 0.089576 0.034971 0.017567 0.068986 -0.095003 0.024559 -0.070213 0.06573 -0.0032791 -0.036526 -0.046335 -0.0041484 0.047893 0.043371 0.028344 0.0094743 0.1027 0.09871 -0.02827 -0.0014164 0.013655 0.03328 -0.045474 0.00020184 -0.061209 0.073577 0.056708 0.014758 -0.047 0.020419 0.021476 0.023993 0.08367 -0.019258 0.051769 0.0095244 0.028225 -0.0089798 0.040557 -0.012686 0.024812 0.027334 -0.046799 -0.057752 0.067916 0.025139 0.1733 -0.024344 0.00087656 -0.09611 -0.081046 -0.0056261 -0.039321 -0.075675 
buying 0.044894 0.0237 -0.014232 -0.014427 0.03356 0.042093 -0.094087 0.0055837 0.030783 0.010515 -0.040039 0.029513 -0.021792 0.039595 -0.043904 0.010682 0.055573 -0.021173 -0.010164 -0.029025 -0.0011897 -0.012517 0.011138 -0.0014318 -0.038313 -0.028247 0.037621 -0.059251 -0.028444 0.050929 0.038414 -0.011252 -0.025903 -0.038293 -0.078658 -0.060962 -0.015234 -0.020188 -0.019684 0.03457 -0.054684 0.048772 0.0093863 0.054563 0.059248 -0.02848 0.070841 0.01944 -0.0035932 0.037544 -0.07665 0.013709 -0.058459 0.046821 -0.016398 -0.019696 -0.031644 0.005614 0.034096 0.032167 0.028191 0.0079291 0.052528 0.064645 -0.022612 -0.014025 0.00073748 0.019352 -0.027233 0.0063804 -0.057082 0.044542 0.04184 0.0040393 -0.052164 0.022651 0.021361 0.0011613 0.047621 0.00045771 0.033422 -0.0033194 0.01965 0.0020481 0.022588 -0.0026478 0.027973 0.021543 -0.04173 -0.037215 0.054925 0.028362 0.12364 -0.032316 0.0014764 -0.067002 -0.052279 0.01008 -0.039432 -0.05472 
my 0.045642 0.019773 0.000893 -0.0051835 0.039782 0.025942 -0.080653 -0.0087819 0.031477 0.022634 -0.040599 0.044018 -0.018857 0.046952 -0.035328 0.017023 0.040984 -0.015641 0.00033545 -0.040434 -0.0051008 -0.017974 0.019458 -0.01588 -0.04946 -0.024682 0.027957 -0.037492 -0.028475 0.049895 0.023503 0.0080002 -0.020159 -0.024852 -0.062202 -0.056393 -0.011905 -0.028873 -0.021079 0.028188 -0.05599 0.06081 0.010072 0.054875 0.043837 -0.036825 0.055933 0.026444 0.016184 0.044446 -0.065577 0.011143 -0.04992 0.046613 -0.00014095 -0.017952 -0.039166 0.0061611 0.0249 0.040432 0.025506 0.02102 0.055036 0.065669 -0.021927 0.0030286 0.0055116 0.018463 -0.021993 0.0068436 -0.038578 0.049405 0.035334 0.019925 -0.034019 0.027702 0.021673 0.005438 0.052879 -0.006119 0.027448 0.0027689 0.015389 0.0017028 0.020088 0.0039322 0.015689 0.021616 -0.040155 -0.036026 0.038018 0.029149 0.11587 -0.012837 -0.0025431 -0.064735 -0.046395 -0.010003 -0.020265 -0.058255 
last 0.034892 -0.0038972 0.0056034 -0.016807 0.0044656 0.038004 -0.058957 0.0043999 0.030414 0.038162 -0.031616 0.055205 0.0046296 0.039263 -0.010463 -0.012653 0.04667 -0.038419 0.010963 -0.043656 -0.0065825 -0.01097 0.031135 -0.014503 -0.05407 -0.029123 0.031245 -0.04342 -0.033233 0.08232 0.048923 0.010328 -0.0066862 -0.028892 -0.055133 -0.044288 0.0088524 0.0039813 -0.017405 -0.012675 -0.041622 0.05804 0.02041 0.065763 0.057908 -0.033154 0.039446 0.0025898 0.027943 0.050879 -0.062629 0.025871 -0.036001 0.042314 0.01133 -0.013699 -0.038248 -0.008052 0.03005 0.028167 0.015053 0.002461 0.065202 0.076434 -0.0068997 -0.008196 0.044006 0.020013 -0.028027 -0.0025804 -0.047058 0.063549 0.037849 0.028715 -0.012991 0.0098489 0.020874 0.029128 0.058481 -0.017063 0.032379 0.024786 0.0049552 -0.0058469 0.039563 -0.00094535 0.0039685 0.02741 -0.019258 -0.023916 0.057479 0.035421 0.10264 -0.0078083 -0.021057 -0.071945 -0.055751 -0.0060487 -0.021905 -0.04583 
view 0.023377 -0.0049167 0.0010731 -0.0071282 0.0078414 0.015057 -0.040529 -0.00096161 0.010787 0.027477 -0.0047169 0.036611 0.0076896 0.016621 -0.013137 -0.011039 0.029296 -0.015211 -0.0043081 -0.028589 0.0081312 -0.016449 0.0035541 0.00055381 -0.025355 -0.0045647 0.014251 -0.023927 -0.019569 0.038907 0.012452 -0.003514 -0.010377 -0.024233 -0.01732 -0.02778 0.0020198 -0.01215 -0.014537 -0.00032143 -0.032052 0.036864 0.010284 0.019965 0.028852 -0.0090893 0.013626 0.011076 0.012029 0.021777 -0.027699 0.016507 -0.025671 0.025357 0.00522 -0.00053459 -0.029092 0.0046242 0.022313 0.017457 0.0039217 -0.00034529 0.046315 0.042958 -0.010351 -0.012894 0.022593 0.015511 -0.013745 -0.0061637 -0.01682 0.027074 0.016407 0.013825 -0.0045677 -0.00051746 0.015424 0.016983 0.030977 -0.0088738 0.018672 0.023197 0.010915 -0.010139 0.0088607 0.0036003 0.0014569 0.017593 -0.0041493 -0.018865 0.031046 0.022571 0.05765 -0.0075733 -0.00068882 -0.04411 -0.020255 0.011129 -0.013757 -0.021518 
good 0.036972 0.017249 -0.015573 -0.0035201 0.034549 0.025633 -0.054221 -0.006615 0.015684 0.0083337 -0.020496 0.029162 -0.0079031 0.027395 -0.017899 0.015444 0.035511 -0.0040227 -0.0032152 -0.025926 0.0042375 -0.0025513 0.011298 0.0039153 -0.039418 -0.01897 0.020257 -0.032404 -0.030735 0.038584 0.018345 -0.0068148 -0.0057293 -0.03171 -0.041015 -0.034594 -0.0095092 -0.0065906 -0.0082107 0.021302 -0.048977 0.042657 0.0098121 0.050637 0.031063 -0.026268 0.035607 0.021225 -0.0021734 0.021469 -0.049118 0.012836 -0.042275 0.034963 -0.0059965 -0.01789 -0.016852 -0.0028979 0.021009 0.035849 0.010757 0.011593 0.047693 0.03678 -0.0096815 0.0051499 -0.0086689 0.021801 -0.017866 0.013795 -0.035746 0.029608 0.03564 0.012153 -0.039477 0.019922 0.0035202 0.0082563 0.03975 0.00065388 0.020781 0.0072913 0.016471 -0.0058399 0.0048938 -3.2524e-05 0.01422 0.0049221 -0.028855 -0.033972 0.025271 0.013498 0.078353 -0.010501 -0.00673 -0.054995 -0.026663 -0.0031179 -0.031877 -0.040332 
like 0.030502 0.015132 -0.004575 -0.022631 0.030612 0.026017 -0.079487 0.0027803 0.02887 0.041673 -0.034361 0.059023 -0.0019915 0.032281 -0.02697 1.3981e-05 0.037515 -0.027958 0.00088368 -0.05391 0.0041546 -0.019151 0.024043 -0.018275 -0.059699 -0.025707 0.041849 -0.045606 -0.034911 0.072186 0.034901 -0.003581 -0.022623 -0.031796 -0.057491 -0.056939 0.0077989 -0.004957 -0.019736 0.0063522 -0.056925 0.063497 0.024833 0.065183 0.059388 -0.031827 0.045193 0.023237 0.0088906 0.059724 -0.060589 0.013338 -0.054468 0.042578 -0.008372 -0.024145 -0.049049 -0.0068098 0.037529 0.03906 0.021656 0.014157 0.06908 0.079664 -0.0017603 -0.0097337 0.027533 0.034143 -0.045482 0.00075038 -0.052213 0.059585 0.048008 0.016757 -0.030455 0.013672 0.016599 0.034592 0.051129 -0.017129 0.030491 0.018997 0.023348 -0.017788 0.023756 -0.0071372 0.0092556 0.020269 -0.033877 -0.027543 0.05207 0.032022 0.1186 -0.00063003 -0.017152 -0.080263 -0.051411 0.0080066 -0.024238 -0.047002 
ued 0.13101 0.036133 -0.03264 -0.042446 0.10598 0.087422 -0.22479 -0.017059 0.071118 0.013668 -0.12526 0.065524 -0.042301 0.086383 -0.12585 0.059515 0.1131 -0.003832 -0.048325 -0.083036 0.00094644 -0.019293 0.052915 -0.0087662 -0.10599 -0.088088 0.087871 -0.12335 -0.075558 0.12405 0.070827 -0.014015 -0.032544 -0.096523 -0.18141 -0.15952 -0.058674 -0.068089 -0.031959 0.092987 -0.14965 0.14624 0.033543 0.16529 0.11821 -0.1098 0.17682 0.07166 -0.0087129 0.09249 -0.18021 0.029608 -0.14392 0.085529 -0.044018 -0.038668 -0.10299 0.013484 0.1039 0.12137 0.063709 0.039293 0.12767 0.13266 -0.065673 -0.007422 -0.024456 0.045726 -0.059217 0.016394 -0.13448 0.12536 0.083987 0.019523 -0.11838 0.067825 0.024841 0.0035238 0.14 0.012827 0.058029 -0.0070267 0.049408 0.013399 0.027294 -0.020801 0.06125 0.0473 -0.088337 -0.09107 0.12338 0.043719 0.32291 -0.097442 -0.00022897 -0.1621 -0.13185 -0.013307 -0.071866 -0.14063 
ufb 0.088081 0.0326 -0.030827 -0.029243 0.075129 0.071706 -0.16441 -0.012631 0.049438 0.01627 -0.086672 0.049323 -0.024118 0.066815 -0.080636 0.053048 0.09425 -0.017321 -0.038215 -0.060084 0.013521 -0.0012837 0.030462 -0.0076369 -0.077495 -0.057241 0.048251 -0.075215 -0.059069 0.080015 0.038602 -0.019533 -0.032113 -0.061617 -0.13669 -0.11001 -0.046482 -0.054957 -0.01503 0.081108 -0.11565 0.10519 0.01783 0.12034 0.091016 -0.074469 0.11715 0.05129 -0.0085736 0.062115 -0.12808 0.019462 -0.099807 0.053226 -0.03472 -0.024238 -0.065783 0.0072744 0.061672 0.07252 0.044611 0.022933 0.095371 0.10233 -0.040921 -0.0036309 -0.022984 0.045854 -0.05537 0.017119 -0.087677 0.083216 0.060318 0.0019877 -0.095778 0.06201 0.015331 -0.0070428 0.098131 -0.0090601 0.041702 -0.0035462 0.049225 0.013102 0.022772 -0.010628 0.047153 0.042873 -0.073674 -0.058518 0.07525 0.037213 0.22785 -0.06866 -0.00082863 -0.10546 -0.080877 -0.0068723 -0.055766 -0.095927 
trump 0.024862 0.0055633 0.00048571 -0.00045832 0.010871 0.02694 -0.047555 -0.0015546 0.014884 0.016772 -0.017291 0.038055 -0.0069858 0.032051 -0.015725 0.01157 0.023483 -0.027556 0.0061376 -0.031561 0.00059642 -0.012332 0.012415 -0.0063282 -0.028649 -0.016234 0.029685 -0.025985 -0.025004 0.04077 0.024731 -0.00145 -0.006399 -0.024927 -0.032285 -0.040451 -0.0029402 -0.0042513 -0.0062893 0.0070494 -0.028014 0.047389 0.022461 0.049828 0.029523 -0.024248 0.032002 0.010963 0.012032 0.042901 -0.049276 0.017089 -0.03711 0.0378 -0.0072498 -0.023254 -0.027285 -0.0029271 0.031304 0.031281 0.010882 -0.0018838 0.0503 0.04353 -0.015175 -0.0097454 0.012284 0.013816 -0.026082 0.0095366 -0.031158 0.044923 0.026113 0.0065619 -0.013527 0.013589 0.020646 0.010093 0.045434 -0.014399 0.018148 0.02223 0.013672 -0.011476 0.011706 0.0055729 0.018711 0.022388 -0.026364 -0.020373 0.034432 0.025168 0.081276 -0.014457 -0.015518 -0.049931 -0.042625 -0.0003382 -0.0095358 -0.030618 
buzzing 0.023018 -0.0037729 -0.0023142 -0.0018493 0.015499 0.031687 -0.063031 0.0035336 0.018406 0.017392 -0.027517 0.035473 0.0013164 0.031678 -0.0033501 0.008598 0.035927 -0.01582 -0.0062571 -0.041537 4.5422e-05 -0.014308 0.013839 -0.016122 -0.039338 -0.025828 0.028394 -0.036434 -0.032116 0.046434 0.035698 0.001526 -0.0053278 -0.016444 -0.037563 -0.035291 -0.0015109 -0.0088285 -0.0054282 0.0013532 -0.040374 0.035138 0.013648 0.051749 0.039693 -0.016184 0.043607 0.0036198 0.015034 0.039427 -0.052246 0.0098378 -0.044152 0.042516 -0.0013189 -0.020665 -0.021281 0.0021462 0.018086 0.024939 0.019468 0.0017342 0.049545 0.051751 -0.012842 -0.0068267 0.017014 0.011857 -0.026652 0.0082706 -0.028335 0.041787 0.028012 0.016782 -0.019931 -0.0018293 0.012674 0.025594 0.047446 -0.011739 0.024618 0.010159 0.0087671 0.0023823 0.014638 -0.0047834 0.010559 0.01412 -0.01743 -0.018525 0.040907 0.029435 0.074934 -0.0093935 -0.012522 -0.045528 -0.045517 -0.005729 -0.015798 -0.045593 
nhttps 0.016743 0.0094769 0.0082077 -0.0075779 0.0021006 0.016797 -0.020791 -0.0024818 -0.0010864 0.0059983 -0.0036415 0.025255 0.0049535 0.015992 -0.010558 -0.005371 0.016341 -0.015066 0.0055383 -0.012749 -0.0030628 0.00067274 0.0038989 -0.0061859 -0.016661 -0.01738 0.0068419 -0.023605 -0.016358 0.020588 0.0090623 0.0014602 -0.010027 -0.012769 -0.01582 -0.028189 -0.0062745 -0.012794 0.0047606 0.01095 -0.02879 0.019062 0.012628 0.020427 0.01914 -0.015413 0.019131 0.0039857 -0.0046845 0.008652 -0.029632 0.01406 -0.01643 0.020117 -0.010057 -0.0066841 -0.017944 -0.0067112 0.014904 0.013115 0.016595 0.0081727 0.024099 0.01539 -0.0079749 0.0066581 0.011385 0.0058815 -0.0076243 0.010212 -0.0072327 0.029001 0.022724 0.0077793 -0.0042962 -3.9081e-05 0.014345 0.0078153 0.014314 -0.0085221 0.020752 0.0031806 0.0059544 0.00036739 0.018078 -0.0050436 0.013826 0.0014347 -0.018039 -0.0093906 0.01056 0.0070916 0.045034 -0.0012688 -0.0048052 -0.032507 -0.025891 0.0049142 -0.013428 -0.010438 
amazon 0.10832 0.031389 -0.01827 -0.023875 0.086444 0.10169 -0.20966 -0.011492 0.065848 0.066967 -0.098733 0.10834 -0.025936 0.089 -0.081732 0.036291 0.11812 -0.056733 -0.0092387 -0.11563 0.0045003 -0.034239 0.049245 -0.030916 -0.13037 -0.079429 0.08739 -0.12537 -0.081896 0.17069 0.094754 -0.0011989 -0.037099 -0.091611 -0.15745 -0.15421 -0.013622 -0.056221 -0.034823 0.03729 -0.15828 0.14587 0.046903 0.16647 0.14559 -0.091501 0.15336 0.047091 0.018209 0.11434 -0.1806 0.028966 -0.13971 0.10853 -0.013394 -0.056965 -0.10311 0.0037571 0.089323 0.10395 0.053485 0.035714 0.17062 0.17693 -0.053011 -0.016175 0.028262 0.062849 -0.086127 0.024945 -0.13278 0.15023 0.11248 0.035047 -0.1095 0.042205 0.029149 0.03968 0.15483 -0.025466 0.070129 0.041093 0.050724 0.0026874 0.062073 -0.012149 0.054094 0.059141 -0.074367 -0.10137 0.1167 0.056585 0.30738 -0.04998 -0.010379 -0.18421 -0.13097 -0.0048486 -0.082819 -0.13533 
sm 0.10491 0.020195 -0.019564 -0.034209 0.071233 0.082902 -0.19929 -0.010925 0.059868 0.065237 -0.071325 0.1199 -0.02005 0.085067 -0.070273 0.0090887 0.10798 -0.061177 -0.017204 -0.10555 0.0053095 -0.02834 0.043925 -0.017267 -0.11727 -0.080952 0.083303 -0.12161 -0.076087 0.15768 0.097319 -0.005581 -0.039151 -0.079081 -0.14969 -0.13946 -0.0088058 -0.040904 -0.043544 0.025271 -0.13076 0.14368 0.044606 0.15069 0.13755 -0.078403 0.12759 0.046149 0.039681 0.11274 -0.16176 0.028636 -0.11188 0.11539 -0.0078992 -0.05057 -0.10108 8.5441e-05 0.082786 0.084999 0.04868 0.032953 0.17355 0.1793 -0.039015 -0.026081 0.046594 0.049246 -0.091415 0.019161 -0.10955 0.1386 0.10325 0.045091 -0.077928 0.029001 0.029453 0.04726 0.14531 -0.015459 0.083088 0.037913 0.041251 -0.013524 0.052984 -0.012024 0.031946 0.060357 -0.074954 -0.084233 0.12643 0.058789 0.27418 -0.048304 -0.021951 -0.18497 -0.1382 -0.0046644 -0.07047 -0.12977 
item 0.086184 0.024343 -0.0211 -0.023083 0.074574 0.085199 -0.17369 -0.0096643 0.049214 0.036582 -0.086131 0.070143 -0.010264 0.082808 -0.074242 0.021953 0.089402 -0.045136 -0.01474 -0.076862 0.004576 -0.0050369 0.039029 -0.012912 -0.092048 -0.068464 0.064484 -0.10048 -0.062398 0.12669 0.061605 0.00046935 -0.028803 -0.077091 -0.13917 -0.11036 -0.011331 -0.049491 -0.037426 0.054845 -0.11922 0.10988 0.027479 0.13572 0.10052 -0.074721 0.11718 0.048112 0.0022755 0.080525 -0.13068 0.029175 -0.11374 0.081973 -0.011059 -0.03794 -0.07141 0.0063005 0.070779 0.069251 0.034956 0.03373 0.1288 0.14454 -0.046422 -0.005185 0.022427 0.053513 -0.065946 0.0064996 -0.10004 0.1093 0.082168 0.036387 -0.090243 0.033683 0.03517 0.018969 0.10804 -0.0052343 0.061967 0.017372 0.0391 0.0052125 0.052299 -0.0046178 0.040789 0.035141 -0.067769 -0.076182 0.095669 0.042375 0.25177 -0.049173 -0.013677 -0.1367 -0.10035 -0.0070423 -0.055748 -0.10678 
sharing 0.027214 -0.0056407 0.0027603 -0.0069544 0.022119 0.032966 -0.068671 0.0081234 0.016991 0.032971 -0.020718 0.054583 -0.0061029 0.04617 -0.019275 -0.0036596 0.044553 -0.042441 -0.0029504 -0.046755 0.0071343 -0.0027138 0.015151 -0.0025049 -0.053052 -0.030003 0.047721 -0.040626 -0.021476 0.071579 0.03818 -0.0016436 -0.011805 -0.040605 -0.060525 -0.046765 0.011635 -0.013757 -0.011562 -0.0084974 -0.039118 0.064973 0.016352 0.054644 0.046439 -0.038203 0.039462 0.012842 0.024816 0.06577 -0.069848 0.018937 -0.049578 0.042044 0.0097919 -0.026961 -0.045401 -0.0034725 0.032836 0.028268 0.025002 0.021806 0.080067 0.074378 -0.0072409 -0.0036351 0.032565 0.027144 -0.037936 0.0038517 -0.036402 0.054113 0.042624 0.027021 -0.027681 0.012862 0.024556 0.034676 0.054331 -0.013662 0.039135 0.034424 0.018241 -0.019728 0.038128 -0.0035288 0.013839 0.021999 -0.024871 -0.03355 0.045376 0.035807 0.11385 -0.012799 -0.013318 -0.083842 -0.056229 0.010509 -0.015542 -0.053536 
month 0.0345 0.0053757 -0.00095079 -0.018242 0.01269 0.020087 -0.056862 0.0063636 0.021984 0.045616 -0.024403 0.053943 -0.0014376 0.034913 -0.0065625 -0.0042903 0.029148 -0.027298 0.016345 -0.047829 0.010102 -0.01728 0.028407 -0.0041967 -0.055026 -0.019458 0.046338 -0.044674 -0.023091 0.075323 0.045445 0.0060845 -0.02179 -0.039597 -0.043553 -0.057058 0.022657 0.0013196 -0.012752 -0.012838 -0.055096 0.048168 0.022151 0.055066 0.047282 -0.035364 0.032717 0.014348 0.030805 0.066995 -0.068175 0.018465 -0.053711 0.045669 0.0074888 -0.026318 -0.039612 0.0025159 0.033788 0.020819 0.015345 0.018945 0.084127 0.080058 0.0047909 0.0025461 0.046178 0.032479 -0.04744 0.0070874 -0.030896 0.060752 0.041878 0.03656 -0.031052 0.0087232 0.025928 0.043287 0.061457 -0.019457 0.048021 0.025735 0.00015289 -0.017979 0.036066 -0.00074276 0.0024618 0.029895 -0.023892 -0.034525 0.060669 0.028633 0.096208 -0.0010651 -0.017931 -0.084253 -0.047799 0.012031 -0.020811 -0.063276 
cyber 0.065303 0.01732 -0.012176 -0.025032 0.04004 0.06618 -0.13902 -0.0085112 0.050618 0.053331 -0.062263 0.088037 -0.0041106 0.07724 -0.047765 0.013225 0.078944 -0.051651 0.00074366 -0.083201 -0.0029139 -0.010164 0.038334 -0.0063196 -0.088351 -0.04153 0.05938 -0.077017 -0.060029 0.11504 0.070823 -0.0032291 -0.017925 -0.052244 -0.10333 -0.093792 -0.0031325 -0.017659 -0.028127 0.025329 -0.099425 0.090732 0.022437 0.11286 0.084984 -0.064057 0.10013 0.037403 0.013335 0.081087 -0.1191 0.017748 -0.095028 0.078044 -0.013296 -0.029901 -0.056229 -0.0075016 0.055746 0.054625 0.038034 0.014487 0.1094 0.12535 -0.014694 -0.015993 0.027166 0.042896 -0.061554 0.020132 -0.076786 0.089 0.076419 0.027168 -0.060838 0.022305 0.035689 0.033932 0.097814 -0.011132 0.062785 0.022336 0.019316 -0.0049019 0.043361 -0.0036167 0.016681 0.036174 -0.05659 -0.060494 0.095258 0.041278 0.20116 -0.027475 -0.01774 -0.11723 -0.090205 -0.0040275 -0.050209 -0.082978 
ordered 0.075463 0.01448 0.0016302 -0.011227 0.049891 0.054363 -0.14875 0.0036882 0.052978 0.061378 -0.061854 0.083256 -0.013725 0.070716 -0.05482 0.00958 0.073833 -0.039292 0.001076 -0.073897 0.0027762 -0.02074 0.044441 -0.0057806 -0.087648 -0.050591 0.067817 -0.086941 -0.063871 0.11574 0.065812 0.0011238 -0.035702 -0.059324 -0.11896 -0.10946 -0.0045354 -0.019289 -0.033042 0.018177 -0.1088 0.096139 0.024212 0.11133 0.10141 -0.055716 0.10546 0.025397 0.024451 0.081996 -0.11169 0.029281 -0.084438 0.085704 -0.0093747 -0.030836 -0.07589 0.0070746 0.053703 0.062596 0.040184 0.031248 0.12155 0.13868 -0.018074 -0.013144 0.041765 0.053465 -0.067443 0.013097 -0.081146 0.10004 0.071828 0.042896 -0.061409 0.025619 0.030097 0.029563 0.097285 -0.029037 0.054362 0.028967 0.036039 -0.015089 0.053532 -0.010531 0.020403 0.038088 -0.053526 -0.070827 0.10267 0.038517 0.2129 -0.031781 -0.027002 -0.12635 -0.088092 0.0039127 -0.045887 -0.096272 
amp 0.016274 -0.0039622 -0.0067311 -0.014555 0.005528 0.0048589 -0.036262 0.0057026 0.0059401 0.0051729 -0.0026594 0.026738 -0.0085326 0.007883 -0.018098 0.0049038 0.012951 -0.010948 0.0066811 -0.018651 0.0041664 0.00063637 0.0076785 -0.010542 -0.016162 -0.0028484 0.021951 -0.013751 -0.002598 0.026297 0.017061 -0.0059031 -0.0062259 -0.014339 -0.020914 -0.022204 -0.0010631 -0.0035267 -0.0024921 0.0087847 -0.018397 0.016988 0.00028081 0.027299 0.023789 -0.0047176 0.021439 0.013297 0.015173 0.030173 -0.031665 0.016056 -0.028458 0.023215 -0.0089283 -0.0034729 -0.018192 -0.0089557 0.019976 0.0095089 0.016117 0.0068199 0.03638 0.021031 -0.01263 0.0073198 0.0064452 0.014209 -0.022422 0.0036329 -0.026307 0.014573 0.0080027 0.0022983 -0.0176 0.0078939 0.0010303 0.0070078 0.022325 -0.012951 0.0034339 0.016105 -0.001033 -0.0031817 0.018254 -0.0098428 0.001836 0.0052243 -0.0051531 -0.016804 0.012172 0.01174 0.04694 -0.013957 0.0002843 -0.024874 -0.012094 0.00013856 -0.016449 -0.013809 
longer 0.063957 0.020862 -0.011188 -0.01871 0.037896 0.060795 -0.13302 -0.008896 0.037667 0.0562 -0.057862 0.072244 -0.015623 0.058657 -0.046451 0.012333 0.072538 -0.042791 -0.010338 -0.076062 -0.00245 -0.014707 0.038318 -0.0070735 -0.070367 -0.049575 0.055904 -0.073982 -0.057371 0.10029 0.05626 0.0036812 -0.02691 -0.059768 -0.10399 -0.082894 -0.0007502 -0.019252 -0.029867 0.02809 -0.083424 0.098091 0.036087 0.10662 0.087022 -0.050918 0.079929 0.033934 0.010834 0.07911 -0.10231 0.028419 -0.079309 0.065475 -0.016018 -0.030708 -0.062636 -0.00089088 0.050231 0.062617 0.03292 0.010246 0.10608 0.11053 -0.024352 -0.00586 0.033823 0.046701 -0.056039 0.013195 -0.079108 0.086269 0.0677 0.037882 -0.057064 0.02001 0.022879 0.030004 0.086447 -0.011651 0.055311 0.033406 0.022889 -0.0096855 0.032743 -0.0014804 0.016503 0.034565 -0.042999 -0.055862 0.082615 0.043282 0.19318 -0.021663 -0.009901 -0.1163 -0.074389 0.010553 -0.03729 -0.081627 
uea 0.090385 0.029099 -0.019741 -0.023325 0.064809 0.074154 -0.17892 -0.0022372 0.045174 0.046332 -0.086553 0.087026 -0.012628 0.087554 -0.077541 0.028179 0.097946 -0.03728 -0.006429 -0.085151 0.010143 -0.014486 0.043832 -0.029173 -0.10577 -0.060734 0.064089 -0.10594 -0.057406 0.11582 0.064428 -0.0036236 -0.019764 -0.070179 -0.13969 -0.12467 -0.0062626 -0.050626 -0.026108 0.037321 -0.11211 0.11382 0.043182 0.13557 0.11451 -0.075834 0.12642 0.056059 0.015118 0.10217 -0.1413 0.020401 -0.10425 0.090606 -0.0091127 -0.039548 -0.085426 -0.0018577 0.076201 0.083717 0.051248 0.024998 0.13405 0.13407 -0.036269 -0.0084455 0.023993 0.04595 -0.075019 0.023002 -0.097101 0.11135 0.078555 0.038646 -0.073192 0.044028 0.034104 0.022744 0.10746 -0.017899 0.051664 0.021574 0.037141 -0.010729 0.041049 -0.01097 0.038594 0.039074 -0.055991 -0.081801 0.10097 0.045185 0.24694 -0.055615 -0.022249 -0.15406 -0.11695 0.0044122 -0.055219 -0.11383 
aged 0.06204 0.016241 -9.9856e-05 -0.011208 0.050162 0.051678 -0.13477 -0.0064099 0.04908 0.042761 -0.047193 0.086867 -0.013954 0.058862 -0.034531 0.015595 0.078206 -0.032906 -0.00020348 -0.068664 -0.0026104 -0.024348 0.035379 -0.011957 -0.072829 -0.043657 0.050448 -0.070031 -0.053503 0.10732 0.060587 0.010478 -0.016628 -0.055624 -0.087809 -0.092786 -0.001466 -0.023533 -0.023935 0.027211 -0.09795 0.085855 0.024991 0.087715 0.082995 -0.061582 0.089386 0.034831 0.015322 0.075882 -0.09627 0.027235 -0.076052 0.068303 -0.014866 -0.034886 -0.058289 -0.0074362 0.050969 0.061417 0.04232 0.02068 0.10643 0.12114 -0.028728 -0.0090469 0.038555 0.040764 -0.044856 0.016156 -0.078714 0.088039 0.075608 0.02997 -0.056822 0.016807 0.024556 0.02395 0.090918 -0.012399 0.046735 0.017006 0.030669 -0.0089536 0.031543 -0.013234 0.030556 0.040165 -0.0537 -0.064263 0.088702 0.027934 0.18658 -0.022261 -0.0069164 -0.10995 -0.079996 0.0076127 -0.035829 -0.085939 
uba 0.076753 0.025209 -0.015574 -0.0161 0.041113 0.058703 -0.15219 -0.0011705 0.042891 0.04969 -0.070091 0.095871 -0.0088723 0.079543 -0.044489 0.0030246 0.073973 -0.041883 -0.0052727 -0.073275 0.003654 -0.013301 0.041309 -0.011347 -0.095206 -0.053793 0.067401 -0.09399 -0.059468 0.12961 0.064722 0.0074079 -0.017821 -0.071067 -0.10765 -0.098192 -0.0089873 -0.031211 -0.031383 0.030371 -0.098245 0.10421 0.038854 0.10406 0.10059 -0.069742 0.091445 0.027122 0.020402 0.096465 -0.11013 0.037108 -0.092371 0.070982 -0.010219 -0.046908 -0.064474 -0.011911 0.060283 0.061037 0.03481 0.021299 0.11698 0.13293 -0.032183 -0.015466 0.031495 0.041639 -0.06282 0.01154 -0.084956 0.1013 0.07026 0.024921 -0.057525 0.016208 0.018519 0.039203 0.097414 -0.011374 0.056899 0.030214 0.031296 -0.00063081 0.047049 -0.0024482 0.022834 0.033728 -0.043309 -0.056259 0.099428 0.045508 0.21294 -0.020051 -0.016137 -0.14003 -0.10047 -0.0036624 -0.057486 -0.092991 
buy 0.023392 -0.0039437 -0.0010536 -0.0007143 0.0081695 0.026965 -0.045503 -0.0098123 0.01079 0.032027 -0.012122 0.046698 0.0023521 0.024015 0.0020611 -0.011128 0.032878 -0.023863 0.01211 -0.03063 0.011452 -0.019678 0.016811 -0.0095602 -0.044441 -0.012403 0.027195 -0.045019 -0.025743 0.059617 0.026923 0.013796 -0.00055571 -0.02979 -0.042059 -0.049906 0.010212 -0.0084011 -0.012223 0.0034929 -0.040035 0.041199 0.013585 0.04261 0.037169 -0.01713 0.02308 -0.0042517 0.020316 0.04414 -0.038132 0.011433 -0.03748 0.043439 0.0067349 -0.023396 -0.027991 -0.01342 0.021801 0.010892 0.011649 0.0043571 0.063642 0.063437 -0.010884 0.0022327 0.045722 0.026663 -0.021176 0.0097966 -0.037761 0.044188 0.042675 0.026559 -0.022331 -0.0015335 0.0059839 0.020217 0.048017 -0.0055035 0.032765 0.022122 0.01572 -0.017457 0.022475 0.0036062 0.014689 0.01024 -0.018947 -0.029741 0.046731 0.028126 0.076243 -0.00093698 -0.00427 -0.063968 -0.045393 0.0029025 -0.020444 -0.043434 
udcc 0.078749 0.0093964 0.012307 -0.016196 0.029717 0.070656 -0.1539 0.0020558 0.043308 0.086519 -0.06169 0.11547 0.011183 0.084371 -0.034574 -0.0059697 0.089424 -0.070586 0.015293 -0.10936 -0.002048 -0.020436 0.036489 -0.014785 -0.10763 -0.042796 0.077079 -0.096414 -0.074142 0.1532 0.077911 0.0035527 -0.02653 -0.079105 -0.11665 -0.11823 0.01512 -0.016424 -0.03434 0.0070506 -0.11028 0.11051 0.04959 0.12489 0.11644 -0.06007 0.098807 0.0118 0.042311 0.12599 -0.1214 0.044793 -0.10552 0.10672 7.4924e-05 -0.04231 -0.0816 -0.020352 0.065514 0.05645 0.046227 0.030338 0.14497 0.15946 -0.0065613 -0.014098 0.07183 0.043275 -0.075977 0.014208 -0.095994 0.11645 0.10127 0.053531 -0.058979 0.0082646 0.045448 0.0536 0.12723 -0.039974 0.081878 0.048035 0.024756 -0.016432 0.060895 0.0066016 0.020598 0.04201 -0.044882 -0.078467 0.097707 0.064124 0.21756 -0.010811 -0.021388 -0.16149 -0.10232 -4.7936e-05 -0.058772 -0.11485 
aexoscharts 0.071584 0.010155 -0.010394 -0.013191 0.033247 0.049895 -0.12814 -0.0056727 0.047104 0.045599 -0.049676 0.08163 0.0042162 0.066515 -0.034797 -0.0014327 0.079317 -0.044592 -0.00777 -0.072581 0.0037372 -0.023429 0.035864 -0.024119 -0.089172 -0.046368 0.065088 -0.077932 -0.044577 0.10974 0.069352 0.011871 -0.01461 -0.065411 -0.10385 -0.09778 6.0851e-05 -0.012333 -0.032783 0.0044122 -0.080258 0.083251 0.042371 0.097336 0.089296 -0.060392 0.085401 0.031278 0.017561 0.08795 -0.10472 0.027325 -0.07911 0.079825 -0.00326 -0.043962 -0.070971 -0.011874 0.047546 0.051495 0.025569 0.017108 0.1215 0.12188 -0.025947 -0.016102 0.047197 0.029669 -0.055757 -7.3716e-05 -0.080417 0.089791 0.080494 0.028157 -0.047618 0.013382 0.023782 0.032255 0.086941 -0.015981 0.063874 0.04016 0.030359 -0.015523 0.041333 -0.01099 0.016033 0.039739 -0.051401 -0.047564 0.078892 0.052796 0.18665 -0.018603 -0.022331 -0.11927 -0.081807 0.0069863 -0.044287 -0.093042 
okay 0.063149 0.0031546 -0.011876 -0.017325 0.030386 0.071772 -0.14507 0.003658 0.038167 0.071315 -0.053131 0.099668 -0.010778 0.067929 -0.036021 -0.0038566 0.091151 -0.057081 0.0099761 -0.099541 -0.0025634 -0.030721 0.041641 -0.016795 -0.1015 -0.061743 0.073524 -0.0896 -0.067106 0.13944 0.085079 0.0043373 -0.019631 -0.068486 -0.10928 -0.10845 0.020126 -0.020114 -0.029237 0.0012454 -0.10594 0.11794 0.034758 0.11075 0.098193 -0.061731 0.098757 0.030512 0.026897 0.10071 -0.1304 0.024907 -0.08566 0.10012 0.0071361 -0.035987 -0.076377 -0.0095535 0.059317 0.060734 0.032335 0.029612 0.14266 0.15312 -0.025359 -0.02171 0.070912 0.043805 -0.074621 0.0042 -0.07951 0.12219 0.0835 0.033832 -0.062923 0.02655 0.042233 0.054019 0.10522 -0.018097 0.07155 0.034632 0.020838 -0.0076099 0.063292 -0.0047647 0.013972 0.042986 -0.047506 -0.07544 0.089439 0.054861 0.20986 -0.018753 -0.018556 -0.14358 -0.10266 -0.0050799 -0.054153 -0.10027 
nready 0.062948 0.0083969 -0.0097059 -0.030026 0.046908 0.055242 -0.13488 0.0035742 0.039068 0.056575 -0.055394 0.09158 0.00025263 0.074519 -0.044567 -0.0060404 0.081842 -0.0639 0.0014594 -0.07994 0.010401 -0.01576 0.041456 -0.020151 -0.08529 -0.049388 0.060971 -0.098798 -0.05792 0.1386 0.072327 0.010001 -0.034786 -0.062848 -0.10718 -0.10956 -0.0026649 -0.021922 -0.021979 0.020994 -0.10155 0.10262 0.03693 0.10751 0.088981 -0.070435 0.089379 0.027333 0.022472 0.10242 -0.11274 0.029787 -0.09116 0.084715 0.0076317 -0.042571 -0.071469 -0.0063873 0.062887 0.062843 0.044376 0.026142 0.12489 0.13916 -0.024938 -0.016827 0.060414 0.03591 -0.071044 0.0071169 -0.089687 0.11159 0.080485 0.039907 -0.057887 0.026096 0.024934 0.038415 0.10742 -0.020935 0.059539 0.036556 0.022073 -0.02413 0.044694 -0.0057267 0.028889 0.030901 -0.04652 -0.06346 0.095211 0.056751 0.21587 -0.010497 -0.019324 -0.13975 -0.097811 -0.0012851 -0.049088 -0.099946 
problem 0.1188 0.0336 -0.0016231 -0.040436 0.066783 0.10887 -0.22047 0.0057909 0.062826 0.078511 -0.089373 0.12791 -0.012027 0.098023 -0.078632 0.026626 0.11885 -0.066692 -0.011528 -0.11678 0.0047468 -0.041514 0.064865 -0.018878 -0.13231 -0.079062 0.091759 -0.1358 -0.099071 0.1872 0.097381 0.0013278 -0.050357 -0.098594 -0.16804 -0.15211 0.0043319 -0.046719 -0.031211 0.045462 -0.16257 0.15736 0.055328 0.17904 0.15387 -0.089357 0.1489 0.052774 0.038435 0.14497 -0.17882 0.045265 -0.12959 0.13436 -0.0010751 -0.062918 -0.11552 0.0024674 0.095934 0.10014 0.060149 0.023501 0.19336 0.19005 -0.04138 -0.027024 0.051636 0.067937 -0.10162 0.0083515 -0.12594 0.15068 0.11507 0.05062 -0.10907 0.035341 0.034007 0.049319 0.16958 -0.021712 0.093053 0.045674 0.048814 0.00010247 0.077581 -0.0022248 0.047129 0.068043 -0.073632 -0.095105 0.14122 0.078051 0.32577 -0.054264 -0.027399 -0.20511 -0.15567 -0.0062243 -0.07334 -0.15119 
monday 0.063293 0.016267 -0.0044078 -0.018824 0.05788 0.057893 -0.14179 0.0021023 0.047796 0.039348 -0.059613 0.07039 -0.0057916 0.074689 -0.058067 0.0083571 0.071335 -0.038951 -0.010664 -0.078569 -0.0045644 -0.014623 0.028973 -0.0046925 -0.08613 -0.052302 0.046523 -0.076914 -0.061986 0.10869 0.058557 0.00085942 -0.015192 -0.06044 -0.10506 -0.09758 -0.0089601 -0.035081 -0.031764 0.039368 -0.098148 0.086403 0.037314 0.1017 0.086827 -0.058473 0.085876 0.028991 0.011969 0.066648 -0.10763 0.024675 -0.091263 0.060242 -0.0002775 -0.035032 -0.058615 0.0074855 0.063776 0.050314 0.042376 0.020544 0.11236 0.11615 -0.01804 -0.0071887 0.019277 0.035165 -0.061533 0.0037561 -0.069663 0.099132 0.065921 0.036164 -0.057522 0.024647 0.017766 0.021237 0.094805 -0.022034 0.045925 0.028269 0.019579 0.0023505 0.030647 -0.0084665 0.024031 0.039099 -0.054639 -0.056874 0.085116 0.031193 0.19545 -0.028754 -0.018498 -0.12398 -0.079074 -0.0060012 -0.039547 -0.084286 
doesn 0.081083 0.020426 -0.0016127 -0.032214 0.03806 0.08723 -0.18068 0.0020722 0.060835 0.097987 -0.077345 0.12915 0.0028426 0.087015 -0.03103 0.0049436 0.11227 -0.085535 0.0037242 -0.10984 0.016812 -0.041662 0.050122 -0.026586 -0.13511 -0.067803 0.10151 -0.12327 -0.075369 0.1786 0.10906 0.012848 -0.041195 -0.08231 -0.13182 -0.14777 0.02151 -0.014929 -0.038233 0.0012109 -0.13271 0.12714 0.04838 0.1383 0.12338 -0.071014 0.11295 0.024571 0.038835 0.14442 -0.16267 0.040258 -0.11453 0.12838 -0.0066545 -0.06098 -0.10084 -0.011349 0.069982 0.076545 0.036799 0.02476 0.18273 0.17822 -0.025596 -0.016475 0.090199 0.047382 -0.096809 0.0087891 -0.10366 0.15644 0.11591 0.051285 -0.064876 0.024138 0.046852 0.06125 0.14094 -0.039743 0.08566 0.061034 0.025901 -0.028338 0.074553 -0.0012133 0.030213 0.044721 -0.070139 -0.077702 0.1145 0.072766 0.25646 -0.0097708 -0.020502 -0.18087 -0.12949 0.0044698 -0.064121 -0.12104 
one 0.018285 0.0045578 0.0035478 0.00054449 0.020974 0.02829 -0.065781 0.0054262 0.017095 0.035674 -0.02754 0.041244 0.013105 0.036322 -0.019507 -0.014237 0.035068 -0.020952 -0.00044412 -0.037385 -0.005947 -0.016957 0.026512 -0.014732 -0.04407 -0.014809 0.034201 -0.046968 -0.030129 0.070119 0.034201 -0.00099195 -0.0016321 -0.035293 -0.037207 -0.042165 0.0063331 -0.0057799 -0.015317 -0.0065061 -0.035891 0.049091 0.010466 0.045773 0.0468 -0.02725 0.039659 0.0081479 0.018011 0.040999 -0.056386 0.014918 -0.045715 0.046569 -0.0056729 -0.017508 -0.02882 0.0024004 0.016927 0.017431 0.0070718 0.0055944 0.065877 0.066672 0.0028442 -0.001812 0.0369 0.010871 -0.024179 0.0016632 -0.02653 0.049031 0.032641 0.013845 -0.024234 0.014739 0.011206 0.021378 0.039086 -0.0091052 0.0205 0.027369 0.01795 -0.004885 0.032593 -0.0099992 0.015459 0.020499 -0.018251 -0.032906 0.047056 0.032464 0.087263 -0.005885 -0.016203 -0.064831 -0.032546 -0.0048624 -0.019287 -0.033356 
send 0.062264 0.0028428 -0.01191 -0.016675 0.046956 0.070408 -0.14759 0.0055035 0.043849 0.064776 -0.055226 0.10754 -0.0084899 0.070066 -0.03758 0.0038764 0.086078 -0.049304 -0.00075548 -0.097698 -0.0035516 -0.02375 0.04626 -0.012495 -0.10308 -0.060904 0.067094 -0.084242 -0.062674 0.1353 0.071551 0.010945 -0.03113 -0.065781 -0.10955 -0.09956 0.011213 -0.02175 -0.029346 0.016956 -0.094919 0.10667 0.038246 0.10799 0.10406 -0.067799 0.095096 0.017873 0.03539 0.11118 -0.11305 0.040815 -0.094246 0.097631 -0.0044687 -0.050221 -0.076544 -0.016058 0.055414 0.052554 0.029916 0.020232 0.1374 0.13703 -0.018296 -0.021318 0.062632 0.044609 -0.073198 0.0061273 -0.075157 0.10805 0.077788 0.04443 -0.049656 0.012276 0.035058 0.039061 0.11215 -0.015379 0.055662 0.046427 0.021627 -0.013765 0.051145 -0.0083457 0.013103 0.034747 -0.052326 -0.061618 0.099412 0.041272 0.21215 -0.010394 -0.010133 -0.14394 -0.10703 -0.0070216 -0.041929 -0.090189 
many 0.09437 0.017341 -0.0029737 -0.018188 0.055701 0.066285 -0.17011 0.0011776 0.0428 0.042406 -0.066451 0.082907 -0.025484 0.064412 -0.05442 0.02751 0.084836 -0.046948 -0.0083007 -0.089195 0.012856 -0.015217 0.038016 -0.014012 -0.095179 -0.064822 0.075982 -0.09723 -0.073374 0.12374 0.056854 -0.00061181 -0.039639 -0.076709 -0.13396 -0.12136 -0.01983 -0.034126 -0.026274 0.042805 -0.1125 0.10735 0.040241 0.11165 0.099019 -0.069911 0.11513 0.044719 0.023605 0.089567 -0.13271 0.025876 -0.10134 0.08885 -0.013837 -0.044378 -0.078374 -0.0083624 0.064259 0.068569 0.0518 0.019413 0.13125 0.13251 -0.043256 -0.0089012 0.029604 0.038399 -0.061161 0.011494 -0.084612 0.11395 0.082994 0.026083 -0.082311 0.031888 0.017071 0.01752 0.11784 -0.023869 0.05101 0.015541 0.025842 0.0083367 0.04839 -0.011938 0.028675 0.050979 -0.05109 -0.0734 0.087708 0.04725 0.22229 -0.037708 -0.0042011 -0.14276 -0.10374 0.0012371 -0.06679 -0.1046 
copies 0.10983 0.028027 -0.0036419 -0.035801 0.06935 0.089876 -0.22132 0.0058009 0.061827 0.077415 -0.097875 0.13519 -0.0097104 0.10511 -0.075487 0.013423 0.12918 -0.076509 -0.0096836 -0.12316 0.016313 -0.03942 0.04867 -0.025163 -0.12727 -0.083181 0.096617 -0.14084 -0.078456 0.19184 0.097645 0.0038062 -0.035884 -0.09806 -0.15848 -0.15964 -0.0030697 -0.038923 -0.039801 0.021554 -0.15275 0.14534 0.054772 0.16323 0.15551 -0.090539 0.15289 0.045869 0.044847 0.13527 -0.17143 0.045329 -0.14412 0.12251 -0.0099016 -0.052435 -0.1031 -0.0036629 0.086494 0.086861 0.051267 0.02956 0.1956 0.20066 -0.031525 -0.017936 0.065904 0.053454 -0.093742 0.02247 -0.12351 0.16362 0.11563 0.051835 -0.092233 0.045605 0.041091 0.061483 0.15281 -0.028859 0.090973 0.042473 0.045191 -0.0094425 0.063879 0.0041631 0.041717 0.062965 -0.082815 -0.092619 0.143 0.066231 0.31658 -0.048501 -0.016042 -0.19416 -0.13589 -0.005331 -0.072444 -0.13992 
store 0.10057 0.020717 -0.012881 -0.022504 0.062045 0.091243 -0.19572 -0.0023864 0.046663 0.076364 -0.086319 0.10687 -0.015385 0.094677 -0.054746 0.010484 0.1053 -0.059717 -0.016516 -0.098238 0.00035104 -0.030369 0.041386 -0.023521 -0.11706 -0.075874 0.096211 -0.12468 -0.086059 0.15601 0.091333 0.00087218 -0.039522 -0.083697 -0.13863 -0.12863 -0.0007739 -0.039859 -0.024594 0.024131 -0.12981 0.14084 0.04337 0.13601 0.12673 -0.076549 0.12154 0.049268 0.038525 0.1237 -0.14477 0.028514 -0.11692 0.11794 -0.0025788 -0.052758 -0.093053 -0.0068738 0.083519 0.079919 0.050196 0.026004 0.15452 0.16383 -0.032452 -0.027878 0.047076 0.062321 -0.079781 0.018957 -0.10529 0.14569 0.10158 0.039842 -0.090978 0.031285 0.031395 0.039519 0.14517 -0.017808 0.083011 0.046577 0.030912 -0.013451 0.056767 0.0017959 0.024251 0.057811 -0.068186 -0.089407 0.11672 0.067884 0.27423 -0.0434 -0.025087 -0.17675 -0.1229 -0.0067034 -0.073043 -0.12677 
obsession 0.096822 0.01301 -0.010601 -0.024743 0.059685 0.083701 -0.18142 -0.0040882 0.048485 0.075948 -0.081727 0.12516 -0.0079722 0.08735 -0.052131 0.0026605 0.10797 -0.067003 -0.013447 -0.11883 0.0012989 -0.033663 0.047193 -0.017881 -0.12989 -0.073788 0.090237 -0.129 -0.08407 0.16225 0.086697 -0.00165 -0.041317 -0.090301 -0.13585 -0.14443 -0.0071662 -0.031673 -0.03349 0.024907 -0.13509 0.14418 0.041179 0.14681 0.12158 -0.075208 0.12663 0.041714 0.039804 0.12748 -0.1591 0.038572 -0.12155 0.11674 -0.011765 -0.052794 -0.098039 -0.0044742 0.078485 0.090165 0.037824 0.033389 0.16485 0.17172 -0.037833 -0.01662 0.066556 0.054442 -0.079622 0.0093001 -0.10149 0.13779 0.11343 0.045501 -0.085718 0.033667 0.031858 0.047701 0.14934 -0.015551 0.077566 0.054188 0.027707 -0.0026945 0.069045 -0.010932 0.031026 0.058875 -0.073985 -0.089887 0.13003 0.062088 0.28481 -0.040775 -0.02022 -0.18503 -0.13317 -0.0033737 -0.066512 -0.13311 
ver 0.057761 0.029067 -0.0024837 -0.016223 0.058142 0.04877 -0.10545 -0.0036286 0.031859 0.011449 -0.062305 0.03847 -0.012168 0.036654 -0.056938 0.026385 0.066472 -0.007119 -0.012315 -0.055305 0.0072556 -0.0076087 0.019315 -0.011352 -0.049556 -0.043886 0.049306 -0.065205 -0.03452 0.066451 0.040315 -0.0071733 -0.017667 -0.039595 -0.087171 -0.069195 -0.01556 -0.021638 -0.018366 0.031999 -0.080864 0.062317 0.029513 0.078209 0.069092 -0.048104 0.07142 0.040478 0.0094623 0.055089 -0.077453 0.014524 -0.059942 0.046167 -0.010033 -0.030843 -0.050506 0.009119 0.054724 0.05419 0.034253 0.023162 0.069473 0.069994 -0.034952 -0.014173 0.0077826 0.027061 -0.044006 0.0041941 -0.067156 0.073831 0.041446 0.012891 -0.063834 0.037187 0.01901 0.0053336 0.083086 -0.014541 0.039019 0.006055 0.016931 0.017108 0.024349 -0.013488 0.022697 0.031349 -0.03761 -0.043656 0.053512 0.029684 0.15419 -0.032201 0.0080039 -0.085043 -0.058878 0.0025021 -0.041979 -0.0755 
need 0.02516 0.014325 0.00017278 -0.0066929 0.0079985 0.012991 -0.0482 0.0027094 0.015272 0.014354 -0.023637 0.012031 -0.003405 0.018586 -0.017727 0.005056 0.014573 -0.01113 0.0022027 -0.011316 0.0073299 -0.0038371 0.0036308 -0.011404 -0.031188 -0.013936 0.025698 -0.026563 -0.015711 0.033895 0.023052 0.0048153 -0.0069075 -0.019178 -0.02802 -0.037932 -0.01403 -0.011331 -0.0046246 0.0040293 -0.032803 0.026969 -0.00092847 0.024923 0.032249 -0.010631 0.030132 0.0040561 0.0085476 0.02513 -0.036327 0.011977 -0.03009 0.011858 0.003213 -0.0023663 -0.027518 0.0093866 0.014655 0.021249 0.0026003 0.016052 0.034564 0.041744 -0.010655 0.0030489 0.0073637 0.0019653 -0.017767 0.0087944 -0.018381 0.033571 0.027857 0.015343 -0.026569 0.019582 0.014909 -0.001641 0.035269 -0.0020897 0.010446 -0.0042547 0.015392 0.0048977 0.0095987 0.0023277 0.0025888 0.0038235 -0.021307 -0.016066 0.015845 0.0053094 0.067384 -0.014271 -5.3851e-05 -0.036316 -0.033356 -0.006523 -0.020556 -0.034185 
ufef 0.075776 0.028866 -0.01019 -0.031614 0.049233 0.065171 -0.16723 -0.0064727 0.045631 0.051827 -0.073128 0.10488 -0.0098997 0.083621 -0.056408 0.0056643 0.087986 -0.057616 -0.015249 -0.096775 -0.00065837 -0.025705 0.049218 -0.0090132 -0.11245 -0.068914 0.069281 -0.10812 -0.07145 0.14165 0.082825 -0.0035284 -0.03801 -0.075143 -0.12325 -0.13008 -0.0038218 -0.026064 -0.037247 0.037923 -0.10972 0.11211 0.049107 0.12711 0.10898 -0.077672 0.10871 0.046198 0.029671 0.094043 -0.13857 0.031764 -0.10927 0.089606 0.00045753 -0.034598 -0.075522 0.0064555 0.080282 0.068636 0.038222 0.015979 0.14392 0.14477 -0.03885 -0.014129 0.033962 0.045836 -0.079927 0.022928 -0.10104 0.11306 0.096052 0.039244 -0.075964 0.029632 0.0264 0.036369 0.12294 -0.013231 0.073114 0.0344 0.036286 -0.0020002 0.042119 -0.0043376 0.035245 0.048565 -0.068371 -0.072297 0.10418 0.054037 0.23099 -0.033901 -0.01398 -0.15439 -0.11682 0.0079575 -0.060754 -0.11868 
day 0.022454 0.0064485 0.0067877 -0.0066247 0.019181 0.023806 -0.032341 0.0025144 0.0068029 0.016128 -0.0047033 0.021919 0.0042925 0.016904 -0.013041 -0.0059618 0.014427 -0.012959 0.0074224 -0.026252 0.010958 -0.011888 0.0095921 0.0012881 -0.016472 -0.01106 0.0090771 -0.020894 -0.018564 0.02141 0.0047734 0.0021984 -0.0045228 -0.0043782 -0.030778 -0.014577 0.0039806 -0.0075877 -0.015617 0.015263 -0.021526 0.017641 0.0012557 0.029059 0.031941 -0.019666 0.032253 0.0058588 0.003905 0.028836 -0.024456 0.010631 -0.028744 0.009848 -0.0056963 -0.014902 -0.0095605 0.0054127 0.015173 0.0167 0.0056277 0.0093867 0.023262 0.036802 0.00075604 0.0055949 0.016722 0.0029414 -0.015071 -0.0011511 -0.01049 0.025774 0.0095795 0.0089308 -0.021268 0.0084178 0.00041413 0.011071 0.030879 -0.0025654 0.0052084 0.0024318 0.0078232 -0.0036136 0.0050624 0.0026114 0.0010922 0.0077294 -0.010091 -0.012468 0.021751 0.016865 0.046733 -0.0025886 0.0046301 -0.0293 -0.029256 0.0084464 -0.011004 -0.014978 
th 0.053554 0.0046526 0.0036664 -0.0090923 0.033268 0.043981 -0.080477 -0.0015894 0.029275 0.04451 -0.028319 0.064264 0.010958 0.05539 -0.017475 0.00012428 0.055172 -0.02915 0.009701 -0.055216 -7.7146e-05 -0.020477 0.023665 -0.013338 -0.059145 -0.035169 0.048768 -0.061344 -0.033096 0.078401 0.055187 -0.0051522 -0.021405 -0.031359 -0.057544 -0.059894 0.002787 -0.015883 -0.017026 0.0075082 -0.053148 0.067868 0.028719 0.067857 0.05728 -0.045515 0.05433 0.019298 0.012863 0.062647 -0.07062 0.020444 -0.048747 0.062771 0.004951 -0.017133 -0.041908 -0.0062972 0.032809 0.041548 0.025894 0.0095236 0.087336 0.093379 -0.0068893 -0.014844 0.050131 0.029717 -0.039628 0.00146 -0.044673 0.066246 0.054965 0.031766 -0.030122 0.019982 0.023081 0.032991 0.068484 -0.01982 0.051173 0.028472 0.0072143 -0.0039017 0.035271 -0.0060646 0.003904 0.029758 -0.030215 -0.033417 0.0668 0.023986 0.13912 -0.0037442 -0.020843 -0.093202 -0.056265 0.0018821 -0.031123 -0.054047 
abenjaminwittes 0.04942 0.0078579 -0.017344 -0.015199 0.028394 0.030891 -0.094927 -0.0054329 0.033927 0.012131 -0.041327 0.034905 -0.0094345 0.034333 -0.041637 0.0189 0.046462 -0.014457 -0.014963 -0.030918 0.0040292 0.0013595 0.026128 0.0021615 -0.049036 -0.031708 0.029027 -0.046413 -0.031523 0.057543 0.027972 -0.011511 -0.0069687 -0.025693 -0.074486 -0.067105 -0.015135 -0.033991 -0.0058133 0.026381 -0.061657 0.054105 0.024458 0.056872 0.048901 -0.02859 0.059522 0.018121 0.0011176 0.044145 -0.066859 0.0024785 -0.06118 0.040301 -0.016295 -0.0094155 -0.044654 0.013545 0.028521 0.038766 0.029926 0.0078191 0.062188 0.052727 -0.018452 -0.010223 0.0031139 0.03042 -0.027928 0.0018772 -0.048299 0.054156 0.040744 0.018013 -0.046668 0.031051 0.0096043 0.011303 0.051605 0.0024427 0.018041 0.012826 0.023009 0.0081567 0.017102 0.0030028 0.028412 0.012874 -0.0392 -0.038246 0.05354 0.028475 0.12237 -0.031912 -0.0020469 -0.06773 -0.059247 -0.011335 -0.034454 -0.043292 
h 0.042859 -0.00044101 0.0073532 -0.014376 0.017657 0.037443 -0.069251 0.00094878 0.02177 0.04524 -0.016391 0.063663 0.0043749 0.043801 -0.008321 -0.002464 0.038395 -0.035559 -0.0041028 -0.052703 0.0077926 -0.010743 0.018209 -0.010222 -0.051716 -0.028321 0.046483 -0.042201 -0.03273 0.079232 0.04075 -0.0058516 -0.01336 -0.034326 -0.051715 -0.059675 0.016013 -0.0070196 -0.020971 0.0038293 -0.050156 0.060606 0.02005 0.049281 0.058489 -0.041901 0.044824 0.017409 0.021916 0.054303 -0.063189 0.01392 -0.047322 0.044666 0.0086286 -0.03015 -0.043997 -0.0071283 0.025008 0.019768 0.025773 0.020769 0.084958 0.081341 -0.011346 -0.0041324 0.032505 0.025 -0.031277 0.010523 -0.035827 0.069554 0.041313 0.017907 -0.015146 -0.00012351 0.009246 0.035281 0.057011 -0.013372 0.041674 0.019572 0.016641 -0.0078197 0.023011 -0.0090029 0.014305 0.0237 -0.028746 -0.036779 0.044638 0.036624 0.099963 -0.010788 -0.0048422 -0.070155 -0.055539 0.0058735 -0.025479 -0.057697 
help 0.040082 0.0070033 0.0011713 -0.022397 0.017108 0.048036 -0.10625 0.004946 0.032634 0.049929 -0.038428 0.086878 0.0015082 0.060663 -0.025435 -0.0060181 0.066249 -0.051061 0.0083552 -0.069827 4.1704e-05 -0.01458 0.0395 -0.019638 -0.078214 -0.036829 0.047045 -0.060956 -0.043268 0.11253 0.067494 0.013468 -0.020906 -0.041333 -0.074691 -0.078712 0.02195 -0.011341 -0.024617 -0.0017055 -0.078101 0.072092 0.035576 0.075236 0.082754 -0.03427 0.06478 0.017604 0.026852 0.086572 -0.088933 0.030004 -0.070578 0.082411 0.0047756 -0.036035 -0.056926 -0.00079567 0.05136 0.033857 0.022822 0.0087527 0.11442 0.10657 -0.0027644 -0.011341 0.051811 0.038579 -0.045534 0.0039469 -0.054165 0.081245 0.058831 0.036046 -0.040574 0.010312 0.027673 0.035338 0.075407 -0.024251 0.047048 0.04063 0.021019 -0.011249 0.034129 0.01013 0.015894 0.042072 -0.042335 -0.038448 0.081861 0.041395 0.14531 -0.0054148 -0.018302 -0.10823 -0.076887 0.012267 -0.040667 -0.078292 
vdlnvcko 0.062511 0.010433 -0.01772 -0.01345 0.044214 0.044872 -0.099909 0.0014961 0.032054 0.023733 -0.060385 0.036809 -0.014148 0.032946 -0.046839 0.026062 0.055293 -0.025217 -0.024541 -0.050752 0.0055311 8.4377e-05 0.014529 -0.016545 -0.059293 -0.033889 0.038765 -0.058777 -0.031115 0.056281 0.038589 0.00070626 -0.02356 -0.033218 -0.085655 -0.0629 -0.019514 -0.026375 -0.021435 0.022879 -0.076746 0.057259 0.014587 0.077993 0.068734 -0.037565 0.074836 0.032712 0.0015055 0.046853 -0.079353 0.006282 -0.069072 0.033338 -0.014975 -0.023028 -0.052882 0.0058207 0.039573 0.042846 0.034371 0.019257 0.059504 0.072041 -0.020969 -0.016103 -0.0023593 0.030583 -0.044888 0.0057011 -0.055292 0.055773 0.046572 0.020605 -0.050191 0.02702 0.01446 0.0094762 0.060494 -0.0075359 0.029001 0.0088261 0.01526 0.013667 0.017818 -0.0072433 0.032158 0.034292 -0.041137 -0.047367 0.044978 0.013516 0.14955 -0.029815 -0.011882 -0.07439 -0.068967 0.0040272 -0.045284 -0.060861 
get 0.026848 0.0098414 0.011931 -0.0099939 0.011837 0.022827 -0.051618 0.0085281 0.0081071 0.026629 -0.0069435 0.036849 0.012305 0.036442 -0.01062 0.0032312 0.036422 -0.01926 -0.00097244 -0.035679 -0.006797 -0.010233 0.012781 -0.0087599 -0.03591 -0.0075891 0.026426 -0.039788 -0.029319 0.05781 0.024796 0.0014535 -0.0040931 -0.021311 -0.027236 -0.039888 0.007107 -0.0047946 -0.0068847 -0.011374 -0.036554 0.031248 0.018374 0.032782 0.032461 -0.029595 0.031729 0.0012832 0.0072547 0.042373 -0.050026 0.0076247 -0.023835 0.047736 0.0018492 -0.018615 -0.035571 -0.014039 0.014989 0.012401 0.016105 0.011613 0.056058 0.061898 -0.0051784 -0.0064272 0.036817 0.015033 -0.020668 0.006984 -0.030479 0.040192 0.029724 0.018523 -0.017484 -0.0033063 0.011472 0.031342 0.038293 -0.010283 0.024955 0.027003 0.0040546 -0.013351 0.027375 0.0026943 0.0083833 0.025166 -0.018166 -0.031741 0.043315 0.016087 0.081283 -0.0072875 -0.015169 -0.05458 -0.033328 0.0073139 -0.0089988 -0.042646 
checking 0.077956 0.004947 -0.00077889 -0.028437 0.051908 0.060298 -0.15277 -0.0027943 0.054401 0.053828 -0.058873 0.11068 -0.0061532 0.0921 -0.058496 0.0061953 0.077521 -0.060881 -0.011905 -0.096932 0.0023072 -0.014312 0.043595 -0.011453 -0.10402 -0.061392 0.068889 -0.10123 -0.068453 0.13787 0.072032 0.0013854 -0.038404 -0.06694 -0.12474 -0.12512 0.0056264 -0.023644 -0.030497 0.0094957 -0.10029 0.11687 0.031237 0.11745 0.10682 -0.074862 0.098731 0.031755 0.021373 0.10594 -0.13805 0.030198 -0.10082 0.10152 -0.01396 -0.037335 -0.068711 -0.0049505 0.070916 0.058924 0.043853 0.031606 0.14612 0.149 -0.02875 -0.0042157 0.060479 0.05556 -0.06769 0.013412 -0.099046 0.11688 0.079915 0.042631 -0.06659 0.026111 0.030502 0.042651 0.1087 -0.014925 0.074792 0.034563 0.036264 -0.0060901 0.055003 -0.0075428 0.036506 0.034715 -0.045966 -0.077003 0.1019 0.045107 0.23233 -0.033717 -0.020452 -0.14919 -0.10999 0.012438 -0.044114 -0.10942 
